,Unnamed: 0.3,Unnamed: 0.2,Unnamed: 0.1,Unnamed: 0,type,value
0,0,0,0,cry,"[-0.12649952 -0.02304623  0.15383567 ...  0.00638343  0.08909681
 -0.07484859]","[-1.26499522e-01 -2.30462270e-02  1.53835672e-01 -4.93251458e-02
  5.36739229e-02  4.12072124e-02  7.77481580e-02 -8.48855229e-02
 -1.57395403e-01  1.25177851e-01 -1.20331450e-01  4.11862049e-02
 -1.67656491e-01  1.96026171e-02  8.34830841e-02 -4.67947576e-02
 -1.43460916e-01  1.13091834e-01  3.45796566e-03  6.44836812e-02
 -2.48492210e-02 -9.37961426e-03  1.17803848e-01  1.12692328e-01
 -1.04637657e-01  1.31707233e-01  2.56755867e-02 -1.71928065e-01
  5.24249279e-02 -1.24419311e-01  6.56309109e-03 -1.93686841e-02
 -8.89509352e-03  2.94780957e-01  6.09411840e-02 -2.64475860e-02
 -3.51456304e-02  6.55849028e-02  1.22029138e-01  1.54752177e-02
 -1.24178270e-01 -1.93653548e-03  8.07339031e-03 -1.51794630e-01
  6.01320973e-02 -2.94195959e-02 -4.63052585e-02 -1.42650131e-01
 -1.71698906e-01  1.03406108e-01 -5.38786137e-02 -4.87472671e-02
 -5.63489311e-02  5.23044151e-03 -2.82474227e-02  5.40197608e-02
  9.60860681e-02 -7.31676022e-02 -2.70678326e-02  1.45594150e-01
 -1.33843112e-01  6.51685014e-03  1.74275664e-02 -1.02994366e-01
 -3.31400054e-02  2.70956686e-01 -9.46593516e-03  2.72546534e-01
  1.72273966e-01 -1.43523832e-02  8.98373702e-03 -3.07014549e-02
 -2.16297079e-01  1.13885628e-02 -1.57189340e-02 -1.87403081e-01
 -1.13311762e-01  3.73883709e-02  1.53589034e-01  1.30668726e-01
  1.10742702e-01 -1.95900539e-01 -2.89061151e-02  3.84199455e-02
  6.32285540e-02  5.35783782e-04 -1.86080849e-02  2.06028425e-02
 -1.30527161e-02  1.40686406e-01  2.24318109e-02  2.78556378e-02
 -4.06381064e-02 -1.67270686e-01  5.27764410e-03  3.98362750e-02
 -1.45472960e-02  1.27924616e-01  4.77131950e-02  5.77730097e-03
  6.28002831e-02  4.40045252e-02 -1.00686159e-01 -3.13250691e-02
  9.88969145e-02 -6.87455034e-02 -1.63942709e-01 -7.90205007e-02
  1.09530658e-01  1.09904374e-01  1.46607187e-02  1.32518714e-01
 -3.77057432e-02 -6.16300588e-02 -9.92797639e-03  3.17565451e-02
  5.34923083e-02  9.98114762e-02  1.33275940e-01 -2.53453373e-02
 -5.97173330e-02  1.57948375e-01 -1.67237189e-01  1.63264702e-01
  1.33587350e-01 -5.40873024e-02 -7.79872993e-02  2.44608912e-02
  1.55499992e-01  4.13591115e-02  4.79635933e-02 -2.80431156e-02
 -8.84278081e-02 -4.21720352e-02 -1.40810034e-02 -1.18238619e-01
 -2.49378348e-01  1.20008319e-01 -5.94704903e-02 -8.62930456e-02
  5.69484232e-03 -1.60620298e-02  1.03314387e-01 -1.37454856e-01
  5.14064825e-02  1.23500210e-02  3.93210588e-02 -1.30408466e-02
  6.00889530e-02  6.12540571e-02 -4.49427459e-02  1.75178741e-01
 -3.65020495e-02  3.38750957e-02  1.37549699e-01  1.97828538e-01
  4.07271147e-02 -1.28132665e-02  5.75119292e-02  8.31183965e-02
  5.31629333e-02  3.42637063e-02 -7.83392377e-02  2.10765691e-01
  9.80283901e-02  8.24084796e-03 -4.51810655e-02  1.62365987e-01
  9.53401629e-02 -2.42110460e-01  6.58855849e-02  7.37374813e-04
 -1.65503845e-01 -1.57565461e-01  1.03235144e-01 -4.37187944e-02
  1.18466782e-01 -9.28566618e-02  4.98542293e-02 -2.05150527e-02
  1.02661470e-01 -4.36379511e-02  4.04262993e-02  1.08345597e-01
 -1.34850665e-01  4.23706136e-02 -1.19370175e-01  1.53873042e-01
  4.67984452e-02 -1.19946474e-01  1.05279765e-01 -8.59467274e-02
  6.41278212e-02 -2.17756685e-02 -1.44295189e-01  5.42674233e-02
  7.75398759e-02  4.11624068e-02 -2.48554823e-02  1.21455590e-01
 -2.76671578e-03  3.50437259e-02  2.59151651e-02 -1.03912855e-01
  6.05416517e-02  1.39574446e-01 -4.93547039e-02  1.53405556e-01
 -1.35809913e-01 -4.30032664e-02 -8.38385960e-03  2.00198704e-01
  4.35844517e-02 -1.60881230e-01  7.93538488e-02  4.32528090e-02
 -7.84431218e-02  9.48837723e-02  8.65505855e-02 -1.29566965e-01
  7.85659885e-02 -3.36840867e-02 -7.95602424e-02 -1.76485878e-01
 -1.78631425e-01  2.21601074e-01  3.41266734e-02 -1.19553150e-01
 -5.03113829e-02  1.04344934e-01 -3.43768254e-02  1.12970034e-01
 -6.37790033e-02  1.66672635e-01  8.79960138e-02  7.22899551e-02
  6.28701737e-02 -6.69275854e-02  2.39391728e-02 -1.24853679e-01
  6.68470097e-02 -8.62850560e-02  5.42109923e-02  6.73994334e-02
 -7.25561836e-02 -8.12090075e-02  1.63916615e-01  3.30629828e-02
  5.42912454e-02  1.02852987e-01  9.70358299e-02 -1.96704288e-01
 -2.06570299e-02  2.67546160e-01  1.44422873e-02 -2.59613190e-02
 -6.63771193e-02  7.78008430e-02 -1.56281148e-01 -1.54759392e-02
 -1.48828240e-01 -5.93601029e-02 -1.97916610e-02 -3.62207379e-02
 -8.78485543e-03  3.01707948e-01  1.36791217e-01 -5.62447301e-02
  4.48996604e-02 -1.35333419e-01 -7.12278779e-02 -4.68236544e-02
 -2.10209174e-01 -1.45579711e-03  1.19990654e-01  6.62670947e-02
 -2.96307939e-02 -6.79381454e-02 -1.19696703e-01 -5.24319531e-02
  3.14763496e-02 -5.51378445e-02 -3.63433563e-02 -2.12781722e-01
  4.72374645e-02  2.22955640e-02 -1.38419347e-01 -3.42724281e-02
  4.62648168e-02  6.93009329e-03 -1.37613398e-01 -1.20128033e-01
  2.44041288e-02  7.65379491e-02 -4.92685734e-02  1.03284327e-01
 -1.62937713e-02  2.16382876e-01 -2.37677163e-01  1.66493302e-01
 -1.64744892e-03 -1.75047893e-01 -9.55786303e-02  4.56744800e-02
 -9.77266545e-02  5.55768892e-03  1.64700356e-01 -1.44308132e-01
 -1.44750953e-02  1.22452664e-01  6.92844043e-02 -1.82041733e-02
 -5.18692664e-02  7.68380582e-03  1.36108598e-01 -8.05137235e-02
  5.90467591e-02 -2.33368298e-02 -7.98041953e-02  2.18400897e-02
 -6.19731442e-02 -1.51786060e-01 -7.01857329e-02 -3.25030707e-01
 -1.11823633e-01  7.11596927e-02  5.03141157e-02  1.79396055e-02
 -3.68516041e-02 -1.98802501e-02 -4.33441208e-02  1.56275301e-01
 -6.82254193e-02  1.17311239e-01  3.00507527e-02 -1.18875247e-01
 -1.16209116e-01  1.18610002e-01 -3.57715622e-02 -5.46457144e-02
  1.86814536e-01  1.33616323e-01  5.30459398e-02 -1.01082038e-01
 -1.75575443e-01 -5.36795673e-03 -6.00827945e-02 -4.23209728e-02
  3.11370691e-02  1.71714266e-02 -2.31554565e-01 -1.42427241e-01
  1.94611044e-01 -8.96876351e-02 -1.13947097e-01 -9.38076878e-02
  6.60628976e-02 -6.77119639e-02 -3.30881157e-02  5.78195546e-02
 -2.63052047e-02 -1.03947511e-01  5.95268252e-02 -1.03358912e-02
 -1.45525776e-01  6.20487780e-02 -9.93658749e-02 -1.42928968e-01
 -5.43106975e-02 -5.14731393e-02 -4.48639637e-02 -1.16772584e-01
 -9.19202362e-02 -1.48960551e-02 -5.87016128e-02 -4.37020621e-02
 -9.78167309e-02 -4.48161600e-02  4.16604221e-03 -5.76943161e-02
 -1.24693547e-01 -8.76000303e-04  4.72732866e-02 -1.05170753e-01
  6.51342467e-02  1.03638606e-01 -1.95069593e-01 -1.47077095e-02
  1.12105642e-01  2.39595306e-01 -5.83528672e-02  2.95420162e-02
 -6.35545918e-02 -3.36982191e-02 -1.84892988e-01 -1.05217849e-01
 -3.99191661e-02 -1.18829873e-01 -5.38857262e-02 -8.16297419e-03
 -1.40603310e-01 -1.69415239e-01 -1.81348152e-01  1.13000237e-01
  4.94202014e-03 -1.67851421e-02 -4.94476929e-02  9.30239012e-02
 -4.92056190e-02  7.52801715e-03  1.55377941e-01 -1.54774226e-02
 -1.18449830e-01 -3.41134414e-02 -3.56747015e-02  1.44946775e-01
  6.03438277e-02 -2.30141279e-02 -5.37787899e-02  6.06351659e-02
  3.32296356e-01 -8.10829516e-02  7.99670800e-03 -5.79171531e-02
  1.03748910e-01  8.02549848e-02 -6.77209105e-02 -2.23778460e-03
 -4.31464601e-02  1.69105637e-01 -1.05396363e-01  3.12252609e-02
  1.66098915e-01 -1.23358233e-01  8.09127468e-03 -5.45852880e-02
  1.52821253e-01 -7.10438285e-02  3.80153751e-03  1.78386170e-01
  1.95836606e-02  3.28044524e-02  1.99617778e-03 -8.92774763e-02
  1.48733591e-02  8.77067813e-02  1.39433685e-02  8.07181285e-03
 -1.31164529e-01  4.62304556e-02 -2.22134322e-01 -6.99812786e-02
  3.56985252e-02 -5.14384890e-03 -1.66992264e-01  6.73424607e-02
  1.24392197e-01 -9.38129328e-02  1.91967258e-01 -1.47223766e-01
  4.82788051e-02  2.44222402e-02 -5.45614057e-02 -1.74019709e-01
  1.89082254e-01 -1.20564672e-01 -1.47444214e-01 -8.26088647e-02
 -4.21731009e-02  3.16095592e-02 -1.64307898e-02  1.98809827e-01
  2.75572172e-01  3.73243219e-02 -1.47366557e-01  1.40600481e-01
 -1.20976839e-01  2.87473308e-02  1.22305488e-01 -1.06160297e-01
 -2.19335110e-02  9.02687902e-02  6.28027395e-02  8.04433741e-02
 -2.73760840e-02  4.41752051e-02  9.64084926e-02 -1.33865149e-01
  1.55056708e-02  5.34235438e-02 -1.26704772e-01  1.87262602e-01
  3.58064073e-02 -7.61647117e-02 -3.21053788e-02  4.46395940e-02
  1.94613322e-01  1.01533812e-01 -5.29901108e-02  1.23911917e-01
  1.58164853e-01  8.80527321e-02 -1.30804334e-01  1.33606654e-02
  1.40887972e-01  5.35036039e-03 -7.53968976e-02  9.97004551e-02
 -9.10025695e-02 -1.81378775e-02 -2.99719785e-02 -3.94628228e-02
 -3.22969379e-02  6.26573299e-02  8.54242126e-02  1.14994405e-01
  1.70884380e-01  6.46079116e-02 -1.80218036e-01  1.31759959e-01
  2.58242092e-01  7.99779342e-02  2.90950947e-02 -6.10578560e-02
  2.59373872e-01 -7.78245988e-02  1.06073599e-01 -2.57048491e-02
 -3.50617802e-02 -8.27036739e-02 -3.96296145e-02 -1.71992967e-01
  1.57704197e-01 -2.58841865e-02 -2.65491631e-02 -4.24949694e-02
 -5.14014654e-02  1.71812037e-01 -1.09865591e-01  5.45619400e-02
 -1.64594692e-01 -1.03257928e-01 -1.44442059e-01  5.98439752e-02
  6.16278223e-02 -8.06587744e-02 -1.22487067e-02 -5.18469039e-02
 -1.27592771e-01 -6.38527918e-02 -2.18999405e-01 -7.04410642e-03
 -2.28605870e-02 -2.73399436e-01  1.72805353e-01  1.76192879e-03
 -1.19612155e-01 -7.68840729e-02  1.29570900e-01  5.87169211e-03
  1.81415804e-01 -7.04322801e-02  9.15400822e-02 -3.87156319e-03
  4.11258833e-02  7.12115913e-02  5.31086017e-02  1.86401725e-02
 -1.58752135e-02  3.25524102e-02 -6.96736400e-02  1.99809973e-01
 -5.62145337e-02 -5.58185783e-02 -8.70727098e-02  1.22882455e-01
  1.30530105e-01  8.43900319e-02 -7.35562635e-02 -4.06924859e-02
 -2.04678333e-02 -4.76850208e-02  6.70787764e-02 -1.20122316e-02
 -1.15304154e-02 -9.44682919e-02  1.81227325e-02  8.38146219e-02
 -1.03360519e-01  1.14125877e-01  1.63257646e-01 -2.66599075e-02
  5.74184024e-02  9.21051492e-02  1.46101897e-01  9.36460853e-02
  1.23004587e-01 -1.36234804e-01 -4.22990458e-02  2.95519968e-02
  1.22741728e-02 -2.71167020e-02 -8.20856815e-02  1.56402338e-01
  1.21183715e-02 -1.95035787e-02  3.94132983e-02  8.05181087e-03
 -1.73253260e-01  1.21576916e-01 -8.29890903e-02  2.53828315e-03
  1.12653276e-01  1.37867992e-01  1.22628584e-02 -1.96794903e-01
 -1.88283312e-01 -8.01914743e-02  1.08584659e-01  6.63474852e-02
 -3.22456385e-02 -1.66020912e-01 -2.75509085e-02  1.18516565e-01
 -1.80319880e-02  2.59040963e-02  1.32608785e-01  1.20083798e-01
 -1.61046377e-02 -4.31763227e-02 -4.28327434e-02  7.89604134e-02
  1.23263791e-01 -1.00703538e-01  6.49781326e-02  2.42168990e-01
  2.08701859e-01 -3.31045458e-02  1.71975522e-01  4.25595097e-02
  7.20246497e-02  6.62279432e-02  1.51276979e-01 -1.11649391e-01
  1.47000427e-01  4.82428537e-03  5.76378000e-02 -1.18548265e-02
  1.02203628e-01 -3.42403890e-02  1.76181666e-01  1.27949774e-01
  4.13190813e-02  5.12057546e-05 -2.58654845e-01 -3.14856903e-02
 -6.14387766e-03  1.47161623e-01 -5.71517318e-02  4.92651961e-02
 -2.08794368e-02  8.21384946e-03  6.69210082e-02 -1.88333560e-03
  3.22752947e-02 -2.72119911e-01 -2.55603270e-02  6.65052732e-02
  1.40645698e-01 -6.57698560e-02  1.85479143e-01  1.06863530e-02
  1.97169469e-02  8.56320863e-03  7.85295858e-02 -1.57548835e-02
  1.32845130e-01  3.60036755e-02  7.64148426e-02 -1.18019227e-01
  1.53084101e-01  1.59170781e-02  4.19328921e-02 -1.37141540e-01
  7.00970423e-03 -1.88271647e-01 -1.05396392e-01 -5.12748517e-02
  2.22426389e-02 -1.31240802e-01  6.98266375e-02  2.52597057e-02
 -1.03450006e-02  7.18326480e-02 -4.89761123e-02  5.87094719e-02
  4.50272129e-02 -1.95104113e-01 -1.11100797e-01 -8.61022815e-02
 -8.19557987e-02 -1.14507938e-01  4.34882593e-02  1.77458421e-01
 -3.18655179e-02  1.30832417e-01  1.23944309e-01 -3.28962821e-02
  2.47511150e-02 -9.71921027e-02 -3.09638678e-04 -2.07737168e-02
 -8.22322614e-02  9.66801706e-02 -2.82794520e-02 -3.84289749e-02
 -6.67133630e-02  1.77211403e-01  1.75821444e-01 -9.89496566e-02
  1.10170167e-01  1.06403382e-02 -9.30456051e-02 -8.00093385e-02
 -4.35196360e-02  1.34465185e-01  8.10342419e-03 -8.63658142e-02
  1.31266626e-01  1.13487564e-01 -9.82389998e-02  2.05384734e-01
  1.61117627e-01 -1.03785419e-01 -2.97968204e-02 -1.47169428e-01
  8.35263951e-02 -2.13694338e-02 -2.52308789e-03 -6.14125499e-02
  7.20634034e-02  8.78872526e-03  7.08916701e-02  3.23342064e-02
 -1.16034930e-01 -7.63263275e-02 -9.53707019e-03  1.44683637e-01
 -1.93932438e-01  1.56326331e-01  1.53532827e-01  4.50024450e-02
  8.74359200e-02 -1.29503496e-01  2.39310944e-02  1.30438507e-01
  1.19342802e-01  2.10860777e-01  7.58626657e-02 -6.25930254e-02
 -1.00342565e-01 -2.98824693e-02 -2.96816074e-02  9.60996139e-02
  3.32513219e-02  1.86098642e-01 -1.17607912e-01  1.75464023e-01
  1.81052908e-02 -1.64414355e-01 -4.84689984e-02  1.70930304e-02
 -3.64302051e-02 -7.95873717e-02  1.05166744e-01  8.88017603e-02
 -1.06833362e-01 -5.99323168e-02  1.03894350e-01  1.24791733e-01
 -5.43470187e-02 -1.96381552e-02  1.43651905e-01  8.19759396e-02
 -3.08128677e-02 -4.36070103e-02 -6.49203957e-02  2.24053256e-02
 -1.05589994e-01  1.23770755e-02  1.19521150e-01 -3.52634966e-04
 -3.98708942e-04 -9.55860015e-02 -6.93587129e-02 -1.51356136e-01
 -1.20371411e-01  4.44438601e-02 -7.47017334e-02  1.08526783e-01
 -1.79565247e-01  1.12098666e-02 -4.02012544e-02 -2.04418678e-04
 -6.21103995e-02 -1.31938793e-02 -1.64443461e-01  1.13237199e-02
  1.85936826e-01 -4.56312360e-02  2.96457401e-02  7.61818220e-02
  6.38033467e-02 -4.72289990e-02 -3.17340357e-02 -1.34441298e-02
 -9.35356370e-02  1.66883563e-01 -3.76344339e-02 -1.30528628e-01
 -6.55969976e-02 -1.65228321e-01  2.58648573e-02 -5.37223052e-02
 -2.83565706e-02 -6.51106196e-02 -1.31252409e-01  3.75513141e-02
  6.56682028e-03 -9.39079051e-03  1.06697075e-01 -9.92595865e-02
 -1.10862827e-01 -1.63623912e-01  8.70212638e-03 -4.93471902e-02
 -1.41804308e-01 -1.63202726e-03 -3.27534937e-02 -1.65983679e-02
  4.13896758e-02  2.92191314e-02  1.84859876e-02  5.88180444e-02
  3.08864963e-02 -9.26653657e-02 -2.20510241e-01 -1.63482224e-01
 -1.22877396e-01  6.99264406e-02 -1.94297546e-01  4.34479704e-03
  2.64825359e-02  6.22262988e-02 -4.40458247e-02  1.44690897e-02
 -6.43187825e-03  4.17344066e-02 -8.94257044e-02  3.92299235e-02
  8.15591958e-02  4.68373030e-02  5.99540419e-02 -1.21474976e-01
  8.89683638e-02  3.12494304e-02 -1.22294894e-01 -4.33237603e-02
 -2.16015888e-01  6.04664071e-03  4.97545393e-02 -1.40215548e-01
  2.20823351e-02  5.40150384e-02  2.73205059e-02  8.02647481e-02
  1.03796495e-01 -1.86022618e-02  5.91267921e-02  3.75578651e-02
  3.93686762e-02  1.96933906e-02 -6.70514354e-02  2.87206308e-02
 -8.89684704e-02 -1.04242109e-02  1.49183823e-04  2.04498377e-02
  9.79286681e-02 -2.84140796e-01 -1.83383749e-02 -6.18987521e-02
 -5.12636703e-02 -1.57868009e-02 -1.67121037e-01  6.34928180e-02
  9.15103244e-02 -5.64361935e-02 -9.09322345e-03 -2.32158953e-02
  1.33671397e-01  1.12097521e-02 -6.08307652e-02 -1.29850208e-01
  1.29997809e-02 -5.06447106e-02  1.15576581e-01  1.56751405e-01
  3.50901123e-02 -7.94843608e-02  3.11663410e-02  7.92635857e-02
 -7.67241956e-02 -1.39759419e-02  9.21950716e-03 -1.29355234e-02
 -6.42533072e-02  2.30616666e-02 -1.09067709e-01  1.20557202e-01
  8.52312462e-02 -2.93328275e-02  1.60523539e-01  6.08271787e-02
  1.16427973e-01 -1.33519711e-02 -7.74032347e-02 -1.85277619e-02
 -1.11654854e-01 -8.25178128e-02 -1.45269802e-01 -1.46016902e-01
 -4.51473660e-02 -1.95229702e-02 -5.08180892e-02 -2.74732856e-02
  4.91958402e-02  3.45342188e-02 -1.09914756e-01 -1.07327511e-01
  1.27331669e-01 -5.48714519e-02 -7.61718687e-02  7.35824124e-02
 -4.03332952e-02  1.56859244e-01 -3.57218881e-02  1.28033677e-01
 -7.20999675e-02 -6.20521629e-02 -6.37402941e-02 -4.73616667e-02
 -3.44679183e-02  2.60873846e-02 -2.15715675e-02  4.37529004e-02
  9.92373373e-02  5.32080216e-02  1.71550113e-01 -5.61049643e-02
  1.48902804e-01 -1.19698736e-01 -8.22087696e-02  2.81073074e-02
  1.04068379e-01  8.29131977e-02  1.10126195e-01 -3.58716155e-03
  3.13539583e-02  6.68528037e-02  1.57211359e-01 -8.46156314e-02
  1.74643608e-01 -1.19623395e-01 -1.54599791e-01  2.35699737e-01
  1.90859332e-01  5.21252256e-02  5.78577273e-02  7.09765361e-02
  1.90593505e-02 -2.59994422e-02 -1.36858825e-02 -9.61496970e-02
  6.51593415e-02  3.44452376e-02 -4.58152266e-02 -8.20593261e-02
 -7.87192268e-02  2.16148205e-01 -9.06791333e-02  5.60899307e-02
  7.43698132e-02 -1.29150756e-03 -4.43646349e-02 -1.13770586e-02
  7.39330936e-02 -1.30115435e-01  2.04392454e-01  6.67808319e-02
  3.96430331e-02 -1.42443495e-01  7.99581963e-02 -7.48691914e-02
 -2.69671796e-02  6.71601918e-02  7.32676815e-02 -9.24169068e-02
 -5.43498991e-02  4.22210086e-02  2.37433037e-02  4.91861679e-02
 -3.45727153e-04  5.72167248e-02 -2.85776111e-02  6.41514340e-02
 -4.35437346e-02 -3.86623284e-02  1.23129923e-01  9.27893930e-02
 -9.36625771e-04  6.38343112e-03  8.90968136e-02 -7.48485860e-02]"
1,1,1,1,cat,"[-0.06492346 -0.11345412 -0.0326669  ...  0.16024226 -0.00573605
  0.07375475]","[-6.49234574e-02 -1.13454118e-01 -3.26669010e-02  1.68780310e-01
  1.01174049e-01 -5.88782794e-02 -2.69659767e-01  9.14837587e-02
  2.73152784e-03  2.05185034e-01  1.46567587e-01 -2.92380719e-03
  5.55867324e-04 -7.77977088e-02 -7.43537234e-02 -1.02976593e-01
 -9.81569796e-02 -4.05456284e-02  1.97244491e-02  2.36409335e-02
 -4.42207246e-02  6.97384518e-02  5.02146987e-03 -7.02718552e-03
 -5.57801627e-02  2.23377265e-04  2.18902561e-01 -9.63987193e-02
  6.60070280e-03  2.35596922e-01 -2.27650143e-02 -6.44129316e-02
  1.59357984e-01 -3.43306536e-02 -9.83998842e-02 -1.06427432e-01
  1.17643697e-02 -3.65819269e-02 -7.88816727e-02  1.72687122e-02
  3.32076889e-03  1.62010206e-01  1.25344568e-02 -2.50711898e-01
  4.31878731e-02 -2.71432880e-02 -1.37152677e-02 -6.46274934e-02
  7.85476675e-02 -1.25660488e-01 -1.31918210e-02  3.01593957e-02
  1.14704568e-01  4.62124815e-02  5.65003020e-02 -2.13916976e-01
  1.26559139e-01 -1.04292289e-01 -4.23696456e-02 -1.22074908e-01
  9.74432519e-02  1.63145300e-02 -6.38149604e-03 -1.01399169e-01
 -5.83334381e-02 -6.05114041e-02 -1.64320343e-01  9.10334129e-02
 -1.27973548e-02 -1.40896424e-02 -6.71131421e-02 -6.84009055e-02
  2.40072483e-01  1.61246667e-01  4.47033387e-02  2.47224934e-02
 -1.08607415e-01  1.08874606e-01 -1.40656032e-01 -9.78013510e-02
  1.13916802e-02  8.20111780e-02  2.39674690e-02  1.97844676e-02
 -1.62578799e-02 -1.60819902e-01 -1.71655262e-01  7.26413550e-02
 -5.36605955e-02 -7.71302544e-02 -9.11542084e-02  1.43170594e-02
  3.78990495e-02  2.98336865e-02  3.80691971e-02 -4.15909156e-02
  9.04702234e-03  1.40161888e-01 -1.58786734e-01  7.75525431e-02
 -1.13331086e-01 -1.40778557e-01  2.95076953e-02  2.31025808e-02
 -1.75530452e-01  6.30357987e-02 -5.46713568e-02 -1.29843028e-01
 -1.30415680e-01 -9.42637968e-02  7.18017613e-02  1.31528224e-01
 -6.06569527e-02 -9.80363085e-02 -1.65981090e-02  5.76369836e-02
 -2.98224509e-01  1.16083794e-01 -5.06323868e-02  1.82783185e-01
 -1.27587676e-01  5.13308337e-02 -8.36208307e-02 -1.01596563e-01
 -6.46908188e-02 -1.12750740e-01  1.22013288e-01 -9.49407908e-02
 -7.39929118e-02  2.03934749e-01 -7.00842497e-02  3.50338527e-02
 -2.13876562e-01 -8.62275605e-02 -9.71133123e-02  7.11308543e-02
  1.26156171e-01  1.49457728e-03 -1.53065130e-02 -3.87301332e-02
 -4.94993370e-02  2.25921651e-02  1.47557126e-01 -1.64484759e-01
 -7.15408005e-02  1.54297591e-01 -1.63703129e-02  2.12950041e-02
  2.37353089e-02 -8.60437782e-03 -7.44922210e-02 -7.78717232e-02
  5.43652248e-02 -8.40948443e-03  6.35625920e-03  7.63178094e-02
  2.34390263e-02  7.39795083e-02 -1.34943025e-03  1.11158959e-01
  3.92977638e-02 -1.01434442e-01 -6.27486654e-02 -1.54601877e-01
  1.53430336e-01  3.68509923e-02  2.36419958e-02 -8.27404565e-02
 -8.76143322e-02 -2.15822741e-01 -8.15021923e-02 -1.49954844e-01
  9.06092346e-02 -1.13992718e-01 -1.09091906e-02 -6.70867220e-03
 -3.12533656e-03 -7.52620991e-02  1.68284694e-01  9.38032256e-02
  4.85536956e-04 -8.22813934e-02  9.58149406e-02  1.26679855e-01
 -5.22278525e-02 -4.48334206e-02  1.15537568e-01 -1.10891822e-01
 -3.48952892e-02 -5.88165926e-02  5.16563787e-02 -6.05319451e-02
 -1.00461896e-01  9.76498919e-02  2.04039701e-02 -5.78028487e-03
 -6.60123470e-02  4.57450690e-02 -1.19425753e-01 -1.96662156e-01
 -1.04920803e-01 -4.55163970e-02 -1.61496249e-01 -1.18669868e-01
 -8.32267917e-02  2.13222615e-02  1.56869107e-01  1.01250362e-01
  5.23989440e-02 -1.57567977e-02  1.81809694e-01 -4.32622765e-02
  2.45504853e-02 -8.25360118e-02 -6.35431285e-02 -9.36941762e-02
 -1.53911351e-01 -1.35572323e-01  1.52631081e-01 -1.98302405e-01
 -5.62229259e-03  9.21812317e-02 -2.15212290e-02  3.11539965e-02
 -4.05114995e-02 -3.04032473e-03  1.83742357e-02 -1.50613913e-01
  1.02589879e-01 -2.65523238e-02  3.89225414e-02  9.04841341e-02
 -2.50681574e-02  1.27769303e-01  6.30490858e-04 -1.03798358e-01
 -9.49473680e-02  6.61178769e-02 -1.18114358e-02 -1.78994736e-01
  3.12125093e-02 -8.92138886e-02  1.00273676e-02  3.00660957e-02
  1.29286650e-01 -1.46174970e-01 -1.65114647e-01  1.48550494e-01
 -1.77907989e-03 -7.39310407e-02 -1.88095396e-02 -2.39698105e-02
  2.70183447e-02  9.64515555e-02  5.67780512e-02  1.22524081e-01
  1.97533310e-01 -3.54697396e-02  3.49470700e-02  1.46825264e-01
 -1.10404480e-01 -9.13166529e-02 -9.00616964e-02 -8.71094663e-02
 -9.51779981e-02  8.73317688e-02 -2.79920988e-01 -7.31358293e-02
  1.46113799e-01  2.78864826e-02  1.56715575e-01  1.31767443e-02
  2.30056652e-01  1.29720017e-01  5.66543289e-03  8.09792289e-02
  7.11176839e-02  1.32998240e-01  8.67896009e-03  5.50189280e-04
 -5.80031257e-02 -4.31820862e-02 -1.48819173e-01 -5.03158809e-02
  7.17032022e-03 -2.99314250e-02  1.71558706e-02 -1.03432103e-02
  7.87744280e-02  5.56764979e-02  1.68935327e-01  2.80685555e-02
 -6.05029599e-02 -2.25312338e-01  5.24359529e-02  1.00140254e-01
  7.58000453e-02 -1.19763686e-01  6.86649770e-02 -6.57373927e-02
  3.16521688e-02  1.41378399e-01  2.47335685e-02 -4.11003214e-02
  8.11637914e-02 -9.64023583e-02  5.41604141e-02 -6.79786649e-02
  1.15191200e-01 -1.43523186e-01 -8.51288311e-03 -2.36130256e-02
  4.73952742e-02 -1.49570327e-03  6.39819103e-02  2.43002342e-02
  6.30625599e-02  1.31812586e-01 -9.30466164e-02  3.36312458e-03
  9.96350757e-02 -8.29727106e-03  5.08514552e-02 -3.71810034e-02
  3.63783662e-02 -3.67715756e-02  1.95570003e-02 -1.56697871e-02
 -4.67931108e-03 -1.35502019e-01  1.84929938e-02  7.07815060e-02
 -1.80436967e-01  7.73074186e-02 -2.15375514e-02 -4.11304495e-03
 -7.08073111e-02  1.02633308e-01  1.03078264e-02 -1.73031992e-01
  5.04259049e-02  1.93252261e-01 -1.21558377e-01  1.74733289e-01
 -3.19296663e-02 -1.45683048e-01  1.37127021e-01  7.61723760e-02
  5.54611056e-02 -1.34000068e-01 -1.40981894e-01 -2.74585271e-02
  1.35571674e-01  2.74673973e-02  1.15348113e-01  1.92999200e-02
 -5.61317838e-02 -1.21418420e-01  4.86570939e-02 -2.00536026e-01
 -1.21562203e-02  4.78829629e-02  9.25340805e-02 -2.04200844e-01
 -2.27889329e-01  2.82644016e-03 -3.28143850e-02 -6.81702194e-02
 -1.65490089e-01  4.81631607e-02  3.72598580e-02 -7.74879008e-02
  6.38747644e-02  2.02458130e-01 -8.93076784e-02  4.70418233e-02
  3.69505040e-02  8.37898238e-02  1.76566611e-01 -4.92663191e-02
  4.06060565e-02 -5.73789804e-02  5.01089950e-02  1.02581214e-01
  2.85846413e-02 -3.38952262e-02 -1.51661854e-01 -9.12139682e-02
  1.48874227e-01 -6.20720795e-02 -4.36964251e-02  2.48808372e-01
  1.01466021e-01 -8.42512968e-02 -8.85182328e-02  1.56968915e-02
 -7.75520134e-03  4.16643173e-02  9.88141264e-03  1.24664984e-01
  5.08366328e-02  1.59544590e-01  3.40406808e-02 -3.45622959e-02
  3.68462553e-02  6.71314147e-02  5.34158685e-03 -3.47584933e-02
 -8.38003131e-02  6.26414218e-02 -3.95416799e-02  5.06013876e-02
 -1.94611658e-02 -7.17117867e-02  1.19734169e-02  5.66742104e-02
  1.86931310e-02  9.98467791e-03 -6.64941954e-02  6.52065488e-02
 -3.56317950e-01 -2.22315939e-02  4.69979764e-02 -1.37242979e-01
 -1.81580416e-02  1.26854188e-01 -3.44629736e-02 -6.00901528e-02
 -2.31875640e-02  6.78608146e-02 -1.65512682e-01 -7.62302995e-02
  8.97484686e-02  1.15824343e-01 -9.09725082e-02 -3.45377540e-02
  8.98055776e-03  3.38241768e-02  1.51916131e-01 -1.21200640e-01
 -3.60832985e-02 -2.13482042e-02 -1.45416293e-02  3.96833416e-01
 -1.57592377e-03  1.77847835e-02  1.51331773e-01  1.63989701e-01
  1.38378738e-02 -1.26768004e-01 -1.79755574e-01  3.27808317e-02
 -1.93607655e-01 -5.53634464e-02  1.09631990e-01  6.31808596e-02
 -1.77823084e-01  1.04957051e-01 -1.41735677e-01  1.58260761e-01
  4.46611484e-02 -2.02474944e-01  9.24020240e-02 -2.85044401e-02
  1.96096970e-02  2.95857211e-02 -7.89616110e-02  2.09443955e-02
  5.48475340e-02 -1.69330342e-01 -1.93021206e-02  1.75110398e-01
 -5.02040743e-03 -1.07584738e-01 -1.47997240e-01 -1.25098343e-01
 -5.56925545e-03  5.37579261e-02  9.91022041e-02  5.99444853e-02
  1.40770810e-01  6.04654758e-02  1.58158089e-01 -4.81061059e-02
 -5.22670159e-02 -8.13272403e-02  6.03318179e-02  9.76234097e-02
  7.16576225e-02 -9.89182223e-02  7.65028056e-02 -6.20883564e-02
 -4.44473876e-02 -2.43281238e-03 -1.47160113e-01 -1.23915737e-02
 -1.84004659e-01  1.81586884e-01  8.69603770e-02 -1.45564347e-01
  2.09185908e-02  1.56113619e-01 -1.63337132e-01 -8.01697336e-02
  1.23368339e-01  2.34725442e-01  8.89590768e-02  1.18445863e-01
  1.11688142e-01  1.82001404e-01 -1.41138028e-01  6.54318330e-02
 -7.36219146e-02  3.23302488e-01  3.98953612e-02  1.64561069e-01
 -2.99899005e-02  3.18119719e-02  8.34688731e-02  1.98712657e-01
 -2.01493170e-01  9.93038170e-02  1.42465111e-02  6.10202297e-02
  1.08519803e-01  1.01444212e-01 -8.85778798e-03  3.43304589e-02
  1.31093011e-01  1.44642413e-01  5.56016253e-02  2.59381680e-02
 -2.01009432e-01  2.44983286e-04 -4.00212297e-03  2.16292749e-01
 -9.61111938e-02  1.08422381e-03  1.51663573e-01 -5.48838862e-03
  5.67715667e-02  1.62943019e-01  1.21926486e-02 -1.37288537e-01
 -1.32805050e-01 -3.51203946e-02  7.62321482e-02 -1.15427101e-01
  7.64953576e-02 -1.01458875e-01  1.24686218e-01  8.86536775e-02
 -3.52456815e-02  3.30708590e-02 -1.25722290e-01 -2.14874811e-01
 -7.86745697e-02  1.97008421e-01 -1.16738781e-01  3.89398925e-03
  4.61290908e-02 -1.49558497e-01 -7.66470735e-02 -1.60222930e-01
 -1.33913019e-01  1.06839825e-01  5.17351876e-02  8.72467102e-02
 -1.49317788e-02  1.48822230e-01  4.31267710e-02  2.86019766e-02
 -8.67452018e-02 -4.02630812e-02  4.53685234e-03  2.50286853e-02
  1.39041804e-01 -4.89631729e-02 -2.31607165e-02  4.39114275e-03
 -3.24326248e-02  6.18205442e-02 -1.84683753e-02 -4.61298559e-02
 -3.50195510e-02  6.59087610e-02  1.68544810e-01  4.59582412e-02
 -1.17129017e-01 -7.09296450e-02 -8.05009158e-04 -8.06939677e-02
  3.43817754e-02  1.07223909e-01  1.39166526e-01 -1.06421949e-02
 -1.10174531e-01  6.88821265e-02 -3.47352779e-02 -4.08793533e-03
 -4.33114064e-02  2.51115502e-02 -1.31796164e-01 -8.57113112e-02
 -5.85947303e-02 -5.06688335e-02  1.16031768e-01 -6.44823407e-02
 -2.15548892e-02 -5.08582514e-02  6.34420045e-02  8.63372329e-02
 -5.43141465e-02 -6.02180705e-02  2.07784361e-01 -3.29637811e-02
  6.11033604e-02 -9.50604815e-02  1.78169891e-02  5.98557538e-02
 -2.02637562e-01 -1.12115442e-01  1.55611239e-02 -1.14815647e-01
 -2.39536767e-03  4.47376529e-02  3.85679754e-02  1.20360890e-03
 -9.28512335e-03  5.79825228e-03 -3.17287552e-02 -2.43577842e-02
 -7.24794553e-02 -2.79975352e-02 -3.70597632e-02  6.66271515e-03
  1.22863200e-02 -6.19685398e-03  1.98390789e-02 -1.11797000e-01
  4.74404844e-02  3.74140076e-02 -8.11685586e-02 -3.58707578e-02
 -4.44954133e-02 -1.05151250e-01 -3.78617188e-02 -6.35178998e-03
 -2.96905938e-02 -9.08477886e-02 -1.53428314e-01  3.67799326e-02
 -1.66204891e-01 -1.98951582e-02 -1.65537485e-01 -3.71163866e-02
 -1.38599730e-01 -7.37504116e-02 -9.41537012e-02 -7.20277935e-02
  7.98471193e-02 -3.29204453e-02 -6.89955120e-02  7.57783965e-02
 -2.14696661e-01 -1.59521996e-02  1.01207512e-01 -5.53740031e-02
 -1.21329768e-01 -4.97187992e-02 -8.47817413e-02 -1.69221461e-01
 -1.92074749e-02 -6.90546026e-02  1.57440035e-01  6.33876424e-02
  8.45286808e-02 -1.53494637e-01 -1.16556642e-02 -7.85022806e-02
  1.78545065e-01 -4.44957526e-02  1.12380167e-01 -2.19123276e-02
 -1.54331830e-03 -4.00933454e-02 -8.62414513e-02 -5.37260707e-02
 -1.02140049e-01  2.47126848e-02 -1.03367804e-01  1.66316258e-01
 -2.60661102e-01  1.21110483e-01 -7.84309578e-03  1.22955055e-01
  2.44101111e-01 -7.00896647e-02 -2.68319722e-02  3.84729726e-02
  8.56113549e-02  5.63447822e-02 -2.46839508e-01  7.65110915e-02
  8.90426745e-02 -5.99719625e-02 -3.69343146e-02 -9.54928990e-03
  7.68887156e-03 -1.17924401e-01 -1.41179438e-01  7.23477494e-02
 -1.44559557e-01  2.43967311e-02  6.26764039e-02 -3.90874857e-02
 -1.96126506e-01  1.11914999e-01 -2.04575446e-01 -3.81307011e-02
  5.83417125e-02 -1.19327393e-01 -9.59011780e-02 -1.06081582e-01
 -2.54700640e-02 -1.36100654e-01 -1.53864278e-01 -2.43310301e-02
 -5.94343914e-02 -1.04800064e-01  1.81483038e-01 -5.11635747e-03
  1.58183225e-01 -7.35083292e-02  1.39990345e-01  4.95355914e-02
 -1.19556607e-01  9.45022686e-04  3.80899952e-02  1.68158772e-01
 -5.58224073e-02  1.94562065e-02 -1.15486849e-01  1.85365253e-02
 -1.15865240e-02  9.20620657e-02  1.20504814e-01 -1.65979678e-01
 -1.38792969e-01 -2.94266321e-02 -5.32877927e-02 -8.84933794e-02
 -7.28794392e-02 -1.02758965e-01 -7.76926675e-02 -6.95148570e-02
  2.90673848e-03 -1.68177113e-01  1.89175067e-02 -1.35925387e-01
  1.72194678e-01  6.71550842e-02 -7.32606254e-03  4.19164655e-03
  9.81548936e-02 -1.41360449e-02  9.70362987e-03 -7.18776132e-02
 -7.74731679e-02  5.96661830e-02  2.44899413e-02 -1.87505564e-01
 -5.61215154e-02 -1.10667005e-01  2.70749630e-02  8.56644588e-02
  5.58926739e-02  2.35967659e-03 -1.58462229e-01  1.01901684e-02
  5.84098401e-02 -1.69986568e-01 -4.28015237e-03  5.92902405e-02
 -2.85600597e-02 -1.14355746e-01 -9.52440065e-03 -5.57662494e-02
  6.17215280e-02 -1.29686694e-02  9.69725217e-02  3.21039110e-02
 -4.62696548e-02 -2.10142759e-01 -1.41036451e-01 -4.46699392e-02
  8.42929446e-02  1.03947229e-01 -7.10364634e-02  8.81692609e-02
 -2.06403598e-02 -8.54160663e-02 -1.06148940e-01  7.58038661e-02
  3.18342291e-01  3.15753917e-01 -1.11272572e-01  6.01549355e-02
  4.36894522e-02  2.46459552e-02 -1.71042063e-02  1.29955209e-01
  3.44697626e-02 -1.75700528e-01  5.23605349e-02  1.29831647e-01
 -1.39162292e-02 -6.83229886e-03 -8.12129065e-02 -5.43962935e-02
 -4.51679690e-02  4.90652377e-02 -9.97608427e-02 -1.62057893e-01
 -4.22538831e-02  1.49415781e-01 -1.82268088e-02 -7.33360397e-02
  8.81662347e-02 -4.50014815e-02 -8.66480995e-02 -1.22251663e-01
 -8.52655219e-02  1.48390253e-01 -5.37727389e-02 -2.14282124e-02
  7.24702663e-02 -4.51904648e-02  5.59636176e-02  1.01944859e-01
 -1.00504657e-01  1.05434964e-01  3.53297054e-02 -7.50210074e-02
  1.42482141e-02 -1.52201835e-01 -5.16764114e-02 -1.15049939e-01
 -1.92545246e-02 -3.18871310e-02 -7.39669816e-02 -1.22485145e-01
  5.17194593e-02  8.07981919e-02 -5.71687865e-03  1.09328179e-01
  2.82132302e-02 -1.37876574e-01 -1.68395715e-01  9.27709257e-02
 -2.74198704e-02 -2.30595080e-03  4.96319283e-02  1.56219941e-01
 -8.31425028e-02 -1.11527412e-01 -5.95045997e-02 -1.91776881e-02
  5.75688723e-02 -1.67763369e-01  2.40873140e-02 -4.63108737e-02
  2.89483535e-02  8.58761117e-02  5.40476777e-03 -9.80107138e-02
  1.63491482e-01 -1.07685825e-01 -7.18839776e-02  2.81155825e-02
 -3.92278347e-02  1.29907975e-01 -1.75456881e-01  7.83208054e-02
 -1.15948203e-01  3.49638832e-02  2.56116955e-01  7.25821166e-02
 -2.99514022e-02 -5.20803459e-02  2.40105341e-01  8.43865183e-02
  1.95770376e-01  6.93844044e-03 -7.42235564e-02 -6.29745696e-03
 -2.24129700e-03 -8.08098738e-02  2.78889975e-01 -2.05585973e-01
  1.75192092e-01  9.10860158e-03  6.59359961e-03  1.60891444e-01
 -3.09069357e-02 -4.48570708e-03  1.21470396e-01 -1.99563467e-01
 -9.34862003e-02 -5.02705996e-02  1.64672454e-01  1.54774719e-02
  5.64011887e-02 -6.53692490e-02  3.50292234e-02 -1.09626544e-01
 -4.52307462e-02 -5.78982060e-02  1.35166125e-01  5.06900256e-02
 -1.58897667e-02 -6.03154558e-02  8.75969437e-02  6.85113731e-03
 -5.57230472e-02  8.51002705e-02 -6.50088727e-02  1.00210064e-01
  3.19481106e-02 -1.18026154e-01 -7.38785272e-02 -7.05622923e-02
 -6.73564323e-02 -8.05524629e-02 -4.01365884e-03  9.99301270e-03
 -4.72900060e-02 -2.89904185e-02 -2.94464146e-02  7.38561505e-02
  1.37212446e-02 -1.43590268e-01  3.48372487e-03  5.52357478e-02
  4.79285043e-02 -8.79188660e-02 -2.03193135e-01  1.34396094e-01
 -2.83115166e-02  2.14641217e-02  1.40236947e-01  1.15029614e-03
 -2.16677541e-02 -1.82316806e-01  2.20874734e-04  4.13838313e-02
 -1.39091589e-02 -2.69237142e-02  5.22805779e-02  5.69038299e-02
 -4.71259823e-02  1.29794749e-01  1.35703738e-01 -8.46515899e-02
  1.36904127e-02 -1.15385770e-01 -1.07008794e-01  7.21868317e-02
  1.34820069e-01  2.41448798e-03  2.96061550e-02  3.10385865e-02
 -1.17954192e-01 -7.42963002e-02  1.02930658e-01  1.06198255e-01
 -4.18467270e-03  2.32748703e-01 -2.27602775e-02 -2.19162321e-02
 -1.05123633e-01  3.37108635e-02 -1.16605257e-02 -1.43919285e-01
 -1.01289085e-01 -8.61353499e-02 -1.46771227e-01 -1.13520614e-01
 -3.99285050e-03  8.04814466e-02  5.10952956e-02  1.78411372e-01
 -8.70683321e-02 -6.34095336e-02 -5.14111195e-02 -5.94079882e-02
  4.22356250e-03 -1.42289862e-01 -5.60894494e-02 -6.03905944e-02
  3.86316379e-02  3.33267618e-02 -1.07001569e-01  8.59928896e-02
  6.95639994e-02  1.22897050e-01  1.03777869e-01 -2.33765436e-02
  1.01362255e-01 -2.39531380e-03  7.39394144e-03  1.07195119e-01
 -8.31838177e-02 -6.90819149e-02  7.51980702e-02  9.91253638e-02
  9.04152732e-02  9.02950003e-02 -3.00191868e-02 -1.45641103e-02
 -2.54715105e-02  1.60242263e-01 -5.73605455e-03  7.37547479e-02]"
2,2,2,2,smile,"[ 0.10328896 -0.17364377 -0.03671045 ... -0.00691565  0.02343531
  0.09124477]","[ 1.03288960e-01 -1.73643766e-01 -3.67104539e-02 -1.01070434e-01
  7.58275122e-02 -6.65815849e-02 -1.24352211e-01 -1.31297769e-02
  1.65788689e-01  1.00835820e-02  5.23810867e-02  1.79015068e-02
  6.86564035e-02  7.99516464e-02 -7.91040182e-02 -1.03931838e-01
  2.11266024e-01 -8.28438320e-02  9.04921084e-02 -4.66929567e-02
  2.45220825e-02 -4.73857010e-02  1.63465445e-02  1.11426535e-01
 -1.01388940e-01 -2.68563111e-01  8.82853536e-02  9.32681999e-02
  1.67296354e-01 -7.65814147e-02 -2.92894552e-04  6.09611037e-02
  1.56990907e-01  5.21457190e-02  1.07570801e-01  3.86415329e-02
  6.84252713e-02  1.20202073e-01 -1.23619179e-01  7.23403642e-02
 -3.81535673e-03  1.27615858e-01  2.48816083e-02 -2.40086650e-02
 -9.60609625e-02  5.78888424e-02  1.95257982e-01  1.32483244e-01
  1.79176811e-01  1.27119011e-01  2.81302172e-02 -3.03755382e-01
  4.28317848e-02 -1.93434148e-02 -1.07679129e-01  2.10417392e-01
  1.21442611e-01 -1.34921178e-02  3.52601996e-02  6.93930679e-02
  3.96952272e-02 -2.64878464e-01 -8.52677520e-02  4.53168081e-02
 -1.16547014e-01  1.57959822e-01 -1.62428155e-01  1.71339206e-02
 -5.52499787e-02  8.97149563e-02 -1.44534972e-02  1.02680091e-01
  8.17637267e-02 -7.08668014e-02  1.64289139e-02  8.76505046e-02
  7.69662085e-02  6.81352825e-02  6.13856387e-02 -4.84312152e-02
 -1.38267379e-01 -1.06705531e-01 -7.20791276e-03 -4.47699905e-02
 -5.97277316e-03 -4.23788337e-02 -1.23393706e-01 -1.67405515e-01
 -4.49973515e-03  6.14090439e-02  4.55208428e-02  4.06472122e-02
 -2.87953221e-02  1.32192789e-01 -1.34853029e-01 -1.22988139e-01
  1.91703999e-01  1.70625125e-02 -7.68197632e-02  4.63207039e-02
  2.26131771e-01  4.24183995e-02 -7.50988923e-02  7.43134237e-02
 -8.08536052e-02 -6.58299639e-02  2.14186506e-01 -1.93483365e-01
  2.52524982e-04 -3.09235236e-02  3.99907224e-02  4.35187824e-02
 -3.18807328e-02  7.03060172e-03  2.93357135e-02  1.26216714e-01
 -4.59754679e-02  2.61639528e-02  9.53539368e-02 -7.85771631e-02
  1.91685318e-01  7.98413760e-02 -3.43677380e-02 -2.21425806e-01
 -1.05547915e-01 -2.66227106e-02  8.40470589e-02 -1.56402287e-02
 -3.47191579e-02 -1.05454758e-01 -1.04100887e-01 -5.67774916e-02
 -7.36609963e-02  2.20778728e-02 -8.84952219e-02  6.24429399e-02
  6.11942413e-03  1.46353901e-01  1.10473311e-01 -1.31723442e-01
  6.51204212e-02 -1.37249165e-01  2.63384088e-02  3.62327996e-02
 -2.16247003e-02  1.36308138e-01  1.16700810e-01 -3.31610189e-02
  3.07788990e-02 -1.38688202e-01 -1.06864203e-02 -2.26455846e-01
 -1.64080331e-01 -1.39455982e-01  4.88177760e-02 -7.51992463e-02
  2.28521562e-01 -2.19285093e-02 -1.54755635e-01 -1.65257718e-01
  9.34299560e-03 -3.17711716e-02 -7.69783092e-02  9.15055832e-02
 -2.35983711e-02 -1.39483162e-02 -1.82681206e-01  7.24929510e-02
 -9.69312217e-03 -2.67478480e-02  3.80244511e-02 -6.35147789e-02
 -4.11244751e-02 -4.77301432e-02  5.04115806e-02  2.27597278e-01
 -1.93915830e-02 -4.20247493e-02 -4.86907762e-02 -2.15184821e-03
  1.90067662e-01  2.58206556e-02 -9.05334560e-03  9.75805221e-02
  1.25303911e-01  1.31240335e-01  4.83636345e-02 -5.55397714e-02
  4.09998319e-02 -3.67567594e-02 -2.19402326e-01  4.54713381e-02
 -1.08262199e-02 -2.07769143e-01  8.98591470e-03  1.51205011e-01
 -2.07833168e-01  1.82214847e-02  6.66720746e-02 -1.42529709e-03
  1.29763227e-01 -1.11372701e-01 -1.86603423e-01  2.11889683e-01
  9.62617403e-02  4.06823847e-02  9.80130337e-02  5.65072127e-02
  3.97534649e-02 -4.12155881e-02  1.20289688e-02  3.19609066e-02
 -1.61636897e-01 -2.82761498e-02 -4.36170296e-02 -3.98784012e-02
  1.38235711e-01 -3.29404128e-02 -2.03631020e-01  1.03146389e-01
 -4.64546067e-02  5.42247563e-02  6.44540141e-02 -7.53208398e-02
  9.19891760e-02  9.74131794e-02  1.75363178e-01 -5.63840950e-02
  2.84430230e-02  5.15354432e-03 -1.04612553e-01  1.47411339e-01
  8.93649891e-02 -1.28143103e-02  1.21377559e-01  8.88582599e-02
  1.46604345e-01  2.58277556e-01  8.16661420e-02 -7.15476138e-02
 -9.32409206e-02  4.99708479e-02  5.65862665e-02  5.29640082e-02
 -1.10385352e-01  1.13246158e-01 -1.15240906e-01  5.08128795e-02
  1.31520424e-01 -2.37888583e-03  1.08074849e-01  7.95804607e-02
  1.07991511e-01 -1.22387908e-01 -1.59594079e-01  2.84041991e-01
  7.51643779e-02  1.77614095e-01 -1.70684069e-01 -3.54425239e-02
 -3.21441440e-02  3.92022881e-02 -1.05418370e-01 -4.84037883e-02
 -1.49048750e-01 -1.04465069e-01 -4.55947994e-02 -8.17823246e-02
  8.88594892e-02 -4.73336632e-02  5.48841201e-03  2.36874538e-01
 -6.93504197e-02  1.00927355e-01 -4.10137315e-02 -6.81777357e-02
  3.45910593e-03  3.31594795e-02  1.09142366e-01 -4.48035357e-02
  1.44214456e-02  3.17313186e-02  1.48303696e-02 -1.38923822e-01
 -4.35195021e-02 -4.58421275e-02  8.08082298e-02 -5.60063162e-02
 -2.32776557e-01 -1.28200784e-02 -2.42046308e-01 -1.19483207e-01
 -1.03921557e-01  4.18161095e-02  1.46992277e-02 -9.30724317e-02
 -1.54965034e-01 -4.72181532e-02 -7.07529265e-02  3.58812217e-02
  7.56769799e-02 -8.42743429e-02  4.42473042e-02 -4.25403807e-03
 -1.93354640e-01  1.12775410e-01  4.68741116e-02 -9.81524584e-02
 -1.71919569e-01  6.84732991e-02  3.88505564e-02 -3.72379527e-01
 -7.05986992e-02 -9.07553940e-03 -2.02711670e-02  3.54398812e-02
  1.43794233e-01  4.48155437e-02 -7.42299034e-02  1.05865871e-01
  1.48507135e-02  1.16933879e-01  1.86962222e-01  1.25112952e-01
 -2.24975557e-02 -7.12882765e-02  6.94353820e-02 -4.31970743e-02
 -9.10804027e-02  2.21955017e-02 -8.23747637e-02  2.24803337e-01
 -5.33306017e-02 -6.53664732e-02  1.17263061e-01 -6.26954612e-02
 -1.18866962e-01 -8.70863014e-02 -2.17706129e-02  1.81163306e-01
 -4.98786260e-03 -2.69569796e-02  6.74062531e-02 -4.24771649e-02
 -2.05944248e-01 -1.15461443e-02  1.79633572e-02 -1.10339720e-01
  1.02070107e-01 -1.10060768e-01  9.28904814e-02  2.22143583e-02
 -9.51299256e-02 -5.05833352e-02 -5.00607702e-02  1.64844975e-01
 -2.45732250e-02 -8.15462172e-02 -2.26154277e-02 -1.75034550e-01
  3.33030589e-02 -2.88357868e-02  1.44385205e-02 -1.30349198e-01
 -9.66686427e-02 -4.19879940e-02 -5.51703763e-02  9.63234034e-02
 -4.15783875e-02 -4.24424655e-02 -2.11553238e-01 -4.52163158e-02
  5.98835026e-02 -2.41660490e-01  1.43258249e-01 -2.30588181e-02
  9.30849948e-02  1.37297901e-02  3.24765344e-02  1.50264981e-01
 -7.09412339e-02 -1.42770138e-01  1.06491473e-01  1.13320299e-03
  5.10816877e-02 -4.34712479e-02  3.60657285e-03  1.97436071e-02
 -1.07693999e-01  1.63723512e-01  1.08697324e-01 -2.22750602e-01
 -7.39504471e-02 -9.44845020e-02  1.10198695e-02  1.20883696e-01
  3.38494212e-01  8.42897314e-02  6.09917465e-02  8.50348457e-02
  9.13783388e-02  1.37026949e-02 -1.06269969e-02 -1.30520593e-01
  3.07178691e-02  2.95737274e-02  5.71992974e-02  4.12377796e-02
 -9.06269592e-02 -1.37339301e-02 -1.30882903e-02 -2.46074647e-02
  1.48462978e-02 -1.46787593e-01  4.28938989e-02 -6.30096635e-02
  2.04901375e-01  3.11554585e-02 -1.81360282e-01  4.32435162e-03
 -6.33326209e-02  1.25319629e-01  7.04542991e-02  1.33592176e-01
 -1.87173888e-03  6.12313967e-02 -1.42091538e-01  1.69546289e-01
  6.13326626e-02  7.18863000e-02  5.07675772e-02 -7.04123701e-02
 -8.37175580e-02 -2.52065553e-02 -5.98414242e-02  1.05892062e-03
  1.34697745e-01  8.39763249e-02 -2.08497621e-01 -6.51744484e-02
  1.42745222e-01  2.01684993e-02 -3.81046658e-02  6.89143763e-02
  2.78686328e-01  5.20354969e-02 -1.16308895e-02  5.33582820e-02
  1.18549263e-01 -8.28121309e-02 -9.42848868e-02 -9.58539217e-02
  2.04592332e-02  3.34631810e-02  5.38781622e-02  7.49771057e-02
 -6.65406999e-02 -1.19203622e-01 -5.16871729e-02  3.72999059e-03
 -1.78189732e-01 -9.69378623e-02  6.82233825e-02  1.15792565e-01
  8.88376137e-02  3.27960082e-02  1.12217051e-01  1.06707536e-01
  3.01853667e-02 -1.20254277e-01  8.47511361e-03  7.46359653e-03
 -7.63383258e-02 -4.28820363e-02 -1.71403885e-02 -1.46147428e-01
  7.38314565e-02 -2.49179007e-03 -6.70578779e-02 -3.41761629e-02
 -1.22241767e-01 -5.71490764e-02  8.44789887e-02  4.28834824e-03
 -2.27452003e-01  8.11679465e-02  1.03750579e-01  1.29473607e-03
 -1.96776760e-02  3.26165966e-02  1.05005881e-01 -9.08113485e-02
  1.18932344e-01  1.75065528e-03 -1.01576622e-01 -1.75577802e-01
  5.85359102e-02 -2.86385387e-02 -1.45772618e-01 -5.14007900e-02
  5.72528490e-02  9.39038700e-02 -7.72486788e-02  4.34692716e-02
  9.30327231e-02  1.50005974e-02 -1.39205937e-01  1.65191744e-02
 -1.38661489e-02  4.40190563e-02 -2.00564437e-01  1.10886140e-01
  1.78662019e-02 -1.13990869e-01  1.05243790e-01 -8.49839521e-02
  6.49800192e-02 -1.87093778e-02  5.64740626e-02  1.73533838e-02
  1.02684530e-01  2.62751768e-02  1.78141692e-02 -2.00891209e-01
  1.03279323e-01  8.45067867e-02  1.66067576e-01  3.29919375e-03
  5.35304100e-02 -1.16132007e-01 -7.40930226e-02 -7.89624959e-02
  6.66508828e-02 -2.02198909e-02  1.52011105e-01 -4.61539934e-02
 -1.72385461e-01 -9.15861075e-03 -1.18604885e-01  2.35180501e-02
 -1.63347478e-01  3.77888017e-03 -2.75335186e-02 -5.04295567e-02
  2.31537122e-03 -8.16727642e-02  1.54185950e-01  3.05965849e-02
 -1.35152074e-02 -1.43601121e-01  6.49133724e-03 -2.90818968e-02
  3.08322472e-01  1.53494078e-02  1.34181399e-02  2.73562277e-02
 -8.67575502e-02  1.57446336e-01 -1.06634964e-01 -1.20020492e-02
  6.29047846e-03  2.12997596e-02  7.86152490e-02 -7.17546644e-02
  5.72998326e-02  1.26335134e-01 -1.42322231e-01  3.99981988e-02
  3.06144836e-01 -1.42267695e-02  7.99611274e-04 -4.72334865e-02
  2.27674223e-02  3.09035566e-02  1.13037292e-02 -1.36681949e-01
 -1.08445439e-01  2.15705218e-01  9.67427257e-02 -5.11935960e-02
 -9.24285121e-02 -6.07923550e-02 -7.94197597e-02  1.22671991e-01
  1.14614927e-01  6.43623121e-02 -5.97083043e-02  1.57093277e-01
  1.02736809e-01 -6.20539704e-02  1.16423782e-01  1.08109611e-01
 -1.32159644e-01  1.10991729e-01  2.21270081e-01  1.47509952e-02
 -6.99595056e-02  1.21825027e-02 -6.08171077e-02  7.96562016e-02
 -6.93309731e-02  1.76386496e-01  6.17120880e-02 -7.84754745e-02
  4.62546717e-02 -5.62687150e-02 -9.15791062e-02 -6.39089866e-02
  1.24117970e-01  4.28604101e-02 -1.28030350e-03 -3.80015817e-03
  2.11131016e-02  5.65811921e-03 -5.49533024e-03  7.13002460e-02
  1.12022763e-01 -1.38906431e-03  1.20934663e-01 -2.74219931e-02
 -8.90897657e-02  2.81988524e-02  1.18480559e-01  1.16904472e-02
 -5.79832823e-02  8.98007152e-02  1.45469150e-01  1.48549647e-02
 -7.45251772e-03  8.96438506e-02 -1.03950675e-01 -2.94923204e-02
  1.83053929e-03  8.19900553e-03 -2.51660303e-02 -1.17437618e-01
  8.87996350e-02 -9.72230169e-02 -8.54898922e-02 -4.61649880e-02
  5.23128216e-02 -1.02806569e-01  4.82057998e-02  6.14281085e-04
 -5.69521862e-03 -3.48234640e-02  8.80478689e-02  5.87499565e-02
 -5.46101175e-02 -1.11910936e-02  2.21938207e-02 -1.25105737e-01
  9.51879287e-02 -9.02031290e-02 -1.28122348e-01 -9.77185706e-02
 -1.60008974e-02 -2.03931941e-01  2.65960781e-02 -4.43285408e-02
 -1.32457414e-01  2.65394911e-02 -1.22929543e-01 -3.18131406e-02
  8.74398240e-03  4.61472960e-02 -5.96411817e-02 -1.77631424e-01
  3.48437327e-02  3.70442715e-02  1.89852599e-02 -8.62624397e-02
 -7.66631496e-02 -8.37183173e-02  7.49126900e-02  1.51298921e-01
  1.45914304e-01 -6.00616313e-02  1.91210739e-01 -8.40655031e-02
  1.02045284e-01  3.00929843e-02  6.09871350e-02 -1.21551531e-01
  2.76082176e-02 -1.25344971e-01  1.52523842e-01  6.47342040e-02
 -1.06587538e-01  2.60445905e-01  1.72324112e-01  1.76169254e-01
  1.20405545e-01 -2.84188723e-02 -6.47877495e-02  1.34707678e-01
 -1.13774194e-01  9.76575654e-02 -3.71945809e-02 -1.47495357e-01
  1.59853422e-01 -2.83221114e-02 -9.15478797e-02  8.20230727e-02
 -2.22964258e-02 -6.33127275e-03 -1.32847270e-01  1.96792842e-02
  7.58438128e-02  2.48171703e-02 -1.29377577e-01 -2.00086021e-01
  9.73251710e-02 -3.62874905e-02 -8.56383668e-02  6.12353880e-02
 -9.59643622e-02 -3.06782513e-02  4.77063114e-02 -1.11686359e-01
  2.28722298e-02 -2.24342912e-02  1.50733456e-01  2.22271626e-01
 -1.48900214e-02 -1.11200221e-01 -6.12949398e-02 -2.46184822e-01
  1.19644810e-01  2.97126556e-01 -1.16844620e-01 -4.59917763e-03
  1.00340182e-01 -3.79055737e-02 -8.62293581e-02  8.56895039e-03
 -1.23701121e-01 -6.99211790e-02 -6.21566267e-02 -8.48923606e-02
 -1.03056228e-02 -1.92087345e-02  5.14532942e-02 -3.91033485e-02
  1.69713438e-02  1.57148335e-02  1.25309565e-01 -5.50109438e-02
 -2.22072651e-01 -3.29223089e-02  7.09086455e-02 -2.06515604e-02
  8.62828832e-03 -1.47336672e-01 -2.24188261e-02  1.89912712e-02
  6.63872280e-02 -4.19912800e-02  1.44082407e-01 -2.12446346e-02
 -2.23039427e-02 -4.35597570e-02  1.98052478e-02  1.23319015e-02
 -2.28318888e-01 -1.91729109e-01 -6.86645122e-02  1.48726254e-01
 -5.78499049e-02  8.52884005e-02 -4.64264060e-02  8.21698271e-02
 -1.23382593e-01 -1.98368633e-02 -3.90393206e-02  8.75371546e-02
  4.77502140e-02 -6.08541118e-02  6.58620905e-02 -7.94410964e-02
  2.70079112e-02 -1.38614176e-03 -2.59065006e-01 -1.51165579e-01
  6.88359084e-02  8.14236501e-02  7.62904210e-03  5.74521514e-03
  1.01406637e-01 -1.09927884e-01 -6.73568542e-02 -2.27578807e-02
  3.01774111e-03 -3.14417711e-02  9.40740818e-02  6.92018591e-02
 -3.24994188e-02 -1.96282770e-01  1.06703826e-01 -4.40442031e-02
 -3.65211703e-02 -1.52514871e-01 -6.04328828e-02  3.64068241e-02
  5.56447390e-02  1.12172927e-01  1.10623468e-01  1.55983076e-03
 -1.53342586e-01 -2.28755070e-02 -6.39130478e-02  8.40739101e-02
  2.42834697e-01 -8.47541881e-02 -3.62074251e-02 -9.61639360e-02
 -7.74616186e-02  2.82952366e-02  1.83207584e-02  4.97361413e-02
 -1.14473124e-02  1.57645627e-01 -1.16434300e-01  4.39045479e-02
  1.09838411e-03  3.75818299e-02  1.33406100e-01  1.44798478e-01
 -4.95617090e-02 -1.56366498e-01  2.19257034e-02  7.21013761e-03
 -6.83445200e-03  6.98139289e-02  8.41322075e-02  6.85990384e-02
 -6.00907302e-03  6.51124468e-02  2.98873498e-02  2.15234145e-02
 -6.35715678e-03  1.37997384e-01  1.78873399e-01  2.04197270e-01
  1.95967201e-02 -3.55117257e-02 -3.48767789e-02 -1.69865829e-02
  6.67678587e-02 -1.34011092e-01  1.00176589e-01  1.23489094e-01
 -5.15653945e-02 -6.69846197e-03  4.15700579e-02 -3.20118732e-03
  1.63755512e-01  1.73037828e-02 -2.53470158e-02  1.20284990e-01
 -1.06640471e-01  7.73580981e-02 -8.75032650e-02  9.17473166e-02
  1.63984348e-02  1.12492698e-01  1.46909467e-01  1.07502562e-01
  3.78868068e-02  2.23617268e-02 -5.96821066e-02 -1.16628237e-02
  4.03365639e-02  2.46060454e-01 -5.88626754e-02  2.08917796e-03
  8.47225180e-02  6.65959760e-02  3.59079347e-02 -1.08674936e-01
 -1.01114092e-01  9.70418120e-02 -1.56451785e-01  6.57459431e-02
 -6.60878901e-02  1.43709209e-01 -2.11825545e-02  7.53612123e-02
 -3.53335715e-02  4.72490097e-02  2.44267999e-01 -4.39131718e-02
 -2.42827359e-03  9.45391489e-02 -5.01066720e-02  1.01219303e-01
  9.20934150e-02  6.31448487e-02  1.94928282e-03  1.34012657e-01
 -1.60361637e-01  1.97074552e-02  5.58992280e-02  9.22481043e-02
  6.59127776e-02 -4.38871242e-02  4.10794862e-02 -1.31584943e-01
  1.99192180e-01 -2.32963793e-01  2.30349803e-02  8.06458395e-03
 -2.73323068e-01  1.54881243e-01 -4.75568737e-02  8.73809253e-02
 -6.78733176e-02 -7.30611866e-02 -1.19621472e-01  1.37030740e-01
  4.48048992e-02  1.06421981e-02 -2.61296793e-02 -2.32660546e-03
  1.66977058e-01  2.18352599e-01  4.55848300e-02 -5.64506731e-02
 -8.97088266e-02  3.47630672e-02 -9.86265021e-02 -2.85624581e-02
  1.55363360e-01 -1.25588806e-02  2.14480616e-02 -2.36153175e-03
  4.74042299e-02  3.22018764e-02  5.81684204e-02 -7.53990027e-02
 -5.24073022e-02 -8.65915045e-02  4.05518807e-02 -1.19018592e-01
 -1.60361046e-02 -6.72024887e-02  8.10758665e-02  2.26087657e-01
 -8.22984789e-02  3.29886043e-03 -2.15702076e-02 -1.81467108e-01
 -3.45053361e-02 -2.61935546e-02 -3.55109543e-03 -1.24818548e-02
 -4.71703482e-02  9.17916498e-02 -4.45512396e-02  1.64028491e-01
  1.22028584e-01 -1.24396180e-01  1.27121548e-01  1.09795183e-01
  1.22486488e-01 -1.03187700e-01 -1.93436619e-02 -8.97860717e-02
 -1.02690895e-01  7.40139612e-03 -1.08230049e-01  2.00185226e-01
 -6.15226964e-02  7.09661872e-02  1.60645502e-01  2.07539043e-01
 -2.08673789e-02 -8.90597148e-02 -2.46087891e-01 -1.18187845e-01
 -3.42968286e-02  2.02289776e-01 -5.20002271e-02  1.11042428e-01
 -4.19585694e-02  1.49021630e-01  1.11735205e-01  3.13171502e-02
 -3.24773660e-03  5.13058145e-02 -1.03245020e-02 -1.50992714e-01
 -1.04485898e-01  5.95621576e-02 -2.24832486e-02  2.86870555e-02
 -1.82089706e-02 -6.84410810e-02  2.16288949e-01 -1.07067490e-01
 -7.26152316e-02 -3.52665437e-02  2.32494956e-02 -9.63311420e-03
  1.10839480e-01 -1.30310242e-01  4.08880261e-03  1.01214468e-01
 -1.16369801e-01  2.65193374e-01  3.30571032e-02  6.16628427e-02
 -3.23557396e-02  8.64041273e-02 -2.35906296e-02 -1.45407196e-01
  6.28777195e-02 -2.42001592e-01  8.44928533e-02 -6.33893365e-03
 -4.41702912e-02 -6.91565079e-03  2.34353100e-02  9.12447689e-02]"
3,3,3,3,cringe,"[-0.06872329 -0.04185259 -0.14575396 ... -0.01944917 -0.05720275
 -0.01454334]","[-6.87232898e-02 -4.18525873e-02 -1.45753960e-01  9.76003253e-02
  4.82500420e-02 -1.83677256e-02 -5.21265914e-03 -1.38343627e-01
  1.16567770e-01 -1.37476441e-01  1.66560287e-02 -4.93647389e-02
  8.21717772e-02  1.59892332e-03  1.20510543e-01  6.76736050e-02
  4.48431067e-02 -2.88859346e-01 -9.57441779e-02  5.42945724e-02
  7.28051878e-02  7.21382444e-02  1.27249729e-01 -1.52912214e-01
  9.38271595e-02  5.70216276e-02 -5.10176413e-02  8.07823551e-02
 -8.42848221e-02 -6.07561151e-02 -6.88856917e-02 -3.61289463e-02
  8.68153192e-02 -3.19926364e-02 -7.08488205e-02  2.97074288e-02
 -1.78407900e-01 -6.87927534e-02  1.04579478e-01  1.33145060e-01
  1.12226847e-01  1.03833699e-01  5.38572396e-02  1.33726115e-01
 -1.24457921e-01  1.04065984e-01 -4.71727602e-02 -7.43168707e-02
  4.83332770e-02 -4.33396796e-02 -5.60189623e-02 -7.08564337e-02
  2.04803207e-01  5.44460144e-02  1.37344838e-01  1.05994267e-01
  9.01882792e-02  4.60374742e-02  1.35735394e-01  1.05476003e-01
 -9.15033600e-02 -1.49567716e-01  3.69994364e-02  1.49219672e-01
  2.79462850e-02  2.23761330e-02 -2.12615515e-02 -5.80213922e-02
 -4.56461698e-02 -4.03947788e-02 -8.71919276e-02  9.21985539e-02
  7.30449859e-02 -1.32501357e-02  5.32336973e-02 -1.30158461e-01
 -8.45377645e-02 -2.07994302e-02  8.77388698e-02  4.90741896e-03
  4.42095370e-02 -6.09761997e-02 -1.77041912e-01  1.77605980e-02
 -2.15861505e-02  2.08113500e-01  1.86455271e-01  4.15492742e-02
  1.26692274e-01 -2.96639418e-02 -1.29676540e-01  4.35235745e-02
 -2.58387695e-03  4.86580815e-02 -1.11167156e-01  3.91654900e-02
 -2.31763332e-02 -3.24394247e-02 -1.28620745e-01 -3.38706856e-01
 -1.81748982e-02  1.25242088e-01  2.69897893e-02  4.91719779e-02
 -1.07983529e-01 -2.79284405e-02 -2.33327132e-01 -1.96318622e-02
 -7.05348575e-02 -1.76981107e-01  8.79151407e-02  6.74692701e-02
 -5.15129592e-02  1.31316443e-01  5.28505574e-02 -4.20735482e-02
 -2.33565818e-02 -1.22476914e-01 -2.61563470e-01 -1.34764096e-01
  1.02759042e-01 -3.81341140e-02 -5.22256970e-02  7.52657533e-02
 -6.45005284e-02 -3.59928550e-03 -1.10856431e-02  1.27566985e-01
  1.84795635e-01  5.58977817e-02 -2.96244024e-02 -8.40830115e-02
 -2.97369558e-02  4.30329360e-02  8.24217728e-02  1.39814917e-02
 -6.13945043e-02 -3.91150464e-02 -6.98010848e-02 -1.47329691e-01
 -1.18799278e-02  2.42442441e-02  1.09611300e-01 -1.64899210e-02
  4.32966665e-02  6.44187787e-02 -1.12448471e-01 -2.91648519e-02
 -1.21109723e-01  2.35917914e-01 -1.27334417e-01  1.94961964e-01
 -6.37758927e-02  1.42137914e-02  1.51815445e-01  1.28159643e-01
 -4.98210420e-02 -1.32655609e-01 -5.46912833e-02  2.23589412e-02
 -1.49662824e-01  1.14116686e-01 -2.56202926e-01  2.06446069e-02
  1.25050776e-01  1.47364197e-01  8.89392146e-02 -2.21194796e-01
  8.98256121e-02 -1.43475185e-01 -6.57581612e-02 -1.50347929e-01
 -9.30408819e-02  7.52934331e-02 -1.09117131e-02 -1.71816532e-01
  4.80734774e-02  1.65005705e-01  5.00306889e-02  7.73159466e-03
 -6.69071353e-02 -5.20994158e-02 -6.89516359e-02 -8.62501090e-03
 -7.17206755e-02  2.01573405e-01  1.65411276e-01 -1.17314630e-01
  5.31448287e-03 -1.31441250e-01  1.99536464e-01 -3.08149496e-02
 -1.11491088e-02 -7.86088951e-02  3.92742111e-02  2.79400140e-02
 -6.52059074e-02  8.26170704e-02 -6.87863075e-03 -1.49543327e-01
  5.90464630e-02 -4.39564938e-02  1.17082716e-01 -4.63308690e-02
  1.54136860e-01  1.91445584e-01  3.84459435e-02  4.88034336e-03
 -4.58220573e-02 -6.51463080e-02  5.58129695e-02 -1.09608646e-01
 -2.06535941e-02 -2.20677535e-02  7.10315524e-02  1.50679958e-02
 -6.46754161e-02 -6.32294532e-02  1.32535496e-01 -1.53384137e-02
 -2.74135339e-02  2.70962687e-01 -2.02483126e-02 -1.06138528e-01
 -2.50622344e-02 -6.75471899e-02  2.68579433e-02 -2.97079586e-03
  5.52777954e-03  6.09899489e-02 -9.53170933e-02 -1.60015504e-02
 -2.19401151e-02 -6.56215725e-02  5.68313859e-02 -3.11081119e-02
 -7.94727495e-02 -1.11711862e-02 -5.93562303e-02 -2.64971964e-02
  1.02944019e-02 -6.70282525e-02 -1.49263182e-01  5.78173573e-02
 -1.09805750e-01  1.23714378e-01 -2.92024898e-02 -2.01241794e-01
 -2.10489949e-02  4.72402541e-02  1.22241332e-01 -2.08067548e-01
  3.08815090e-02 -4.08517983e-02  7.17294429e-02  5.48617369e-02
  7.24239394e-02 -1.39995702e-01  2.11164844e-01 -9.77993914e-02
 -1.98900104e-01 -9.51912712e-02  1.39123292e-01  1.54753582e-01
  1.12713524e-01 -1.85078770e-01 -7.09006280e-02  2.50077349e-02
 -1.85644438e-01  1.12526165e-01  6.56342490e-04  6.43858028e-02
  1.34496911e-01 -1.64916517e-02  8.95192283e-02  7.07043231e-02
  4.13081297e-02  7.96071962e-02 -1.52545605e-02  1.66660582e-01
 -7.27258578e-02  9.14920279e-03 -1.64591704e-01  1.51708824e-01
 -9.73411592e-02  2.23283758e-02 -1.73381724e-02  7.09202047e-02
  1.80737417e-02 -3.84522215e-02  7.91880952e-02 -1.14953531e-01
  5.04548083e-02  9.13923015e-02 -2.47580716e-02  1.71765215e-02
  2.02365172e-02  1.13693886e-01  4.48938383e-02  1.41260714e-01
 -1.23826303e-01  2.30455748e-02  9.06188852e-02  1.48635212e-01
  4.44672785e-02  3.78305061e-02 -5.64989192e-02 -2.30819037e-01
  6.80243182e-02  1.06797779e-02  6.26514960e-03  3.31274083e-02
  8.00270701e-02  1.87609265e-01  2.74812994e-01  3.06705387e-02
 -7.80399709e-02  2.59027253e-04 -1.35853231e-01 -8.53874818e-02
  2.98743754e-02 -2.67940039e-02  7.76218230e-02  7.57730152e-03
 -6.96824396e-02 -9.74154030e-02  3.12281445e-02  6.53296725e-02
  4.91041154e-02 -7.18162913e-02  4.43418283e-02 -2.27669327e-01
 -6.31160058e-02  2.53494463e-02 -3.19482600e-02  7.55455982e-02
 -3.03576499e-02  2.05160132e-01 -9.32352925e-02 -1.73519740e-01
 -1.02106920e-01  8.82414964e-02  2.51111456e-02  1.21553970e-01
  2.45249818e-02 -2.88521743e-02  1.94219245e-02 -4.69774036e-02
 -4.09820550e-02 -1.56188228e-01  4.47598033e-02 -7.43218174e-02
  7.46932580e-02  4.00471725e-02 -9.93957957e-02  2.03413616e-01
 -6.40820480e-02 -2.82881345e-02 -3.61379414e-02  5.71484231e-02
 -1.37645203e-01 -3.35819869e-03  2.08910255e-02 -1.39292168e-01
  7.88727954e-02  2.71989154e-02 -8.55869642e-02  9.02399071e-02
 -1.52972062e-01 -4.65835943e-02 -9.33727145e-02  4.09558540e-02
  5.45822717e-02 -2.56801006e-02  1.67644216e-01 -3.05173630e-02
  1.15764781e-01  3.09876431e-02  9.59690662e-02  7.46255974e-02
  1.26921015e-01 -6.90008271e-02 -6.22127744e-03  1.92290788e-01
  6.30200980e-02  1.09408925e-01 -2.86450340e-02 -2.20369933e-02
 -1.07737770e-01  1.14611240e-01 -2.10876081e-02 -2.51485091e-02
 -1.06202549e-01  5.56936425e-02 -5.66509600e-03 -1.09543503e-01
 -2.01522521e-01  1.40573446e-01 -9.31808011e-02  6.43343570e-02
  7.31099841e-02  3.85603484e-02  6.88160197e-04  2.35014080e-02
 -1.09872483e-01 -8.96079524e-02  2.01495459e-01  4.22323503e-02
  2.48540265e-03 -7.17992488e-04 -1.78763360e-01 -1.25064180e-01
  1.36258850e-02 -1.73293081e-02 -1.95527189e-01 -7.08091085e-02
 -4.79858294e-02  2.27320703e-03  2.28002199e-01 -5.89615886e-02
  2.62259789e-02  1.36365819e-01 -4.22926893e-02  7.61656310e-02
 -8.64101847e-02 -5.74487525e-02  1.87357528e-01 -1.47145633e-01
 -7.89829448e-02 -2.70933089e-01 -6.10751729e-02  1.08106406e-01
 -3.90821555e-02 -1.69603301e-03  1.00205605e-01 -2.14143296e-01
 -5.58351109e-03  7.43843230e-02 -6.94342448e-02  2.08588201e-02
  3.12887535e-02  4.68789415e-02  1.08346119e-02  3.25879300e-02
 -1.56124915e-01  6.18144117e-02  1.58665853e-02  3.66258666e-02
 -2.17337410e-02  1.73872132e-02  1.13114709e-01 -1.21410725e-01
 -1.58117500e-01  2.88585665e-02 -1.53349910e-01 -1.22001648e-01
  6.20878239e-02 -1.49596605e-01 -1.46772762e-01 -1.06588540e-01
 -1.30597438e-01  7.33055820e-02  1.17576858e-01 -1.42500919e-02
  3.42909084e-02 -8.72779709e-02  7.82400733e-02 -3.18755017e-02
  1.59627776e-01  1.10928067e-01  1.48727359e-02 -2.49048909e-02
 -8.60959227e-02 -2.16786724e-01 -1.40646888e-02 -1.11339946e-01
 -4.48103571e-02 -1.00540512e-01 -1.29969846e-01  1.07283891e-02
 -1.51289677e-01  2.00595230e-01 -1.71276845e-01 -3.56973408e-02
 -1.31369403e-01 -9.79806961e-02 -2.22368146e-02 -1.79987216e-01
  1.19803743e-01  2.72507189e-02 -1.78383136e-03 -4.59005620e-02
  8.21699637e-02  1.45894644e-02  1.10822479e-01  2.08873369e-02
 -5.34539342e-02  1.98584374e-01  2.33624783e-02 -6.98656687e-02
 -9.90699015e-03  4.85983264e-02  1.16959272e-01  1.01720417e-01
  3.19516187e-02  2.90528163e-01  5.58122948e-02  4.82152295e-02
  4.07928724e-02  1.45727420e-01 -1.43016796e-01  1.15247898e-01
 -2.13813209e-02 -6.61656600e-02 -1.16701702e-01  3.61679883e-02
 -7.44252284e-02 -1.52566789e-01 -8.22087292e-02  2.33665117e-02
  1.54667476e-01 -2.50802515e-02  2.88135201e-04  2.71526675e-02
  6.83219229e-02 -3.27929409e-03 -2.00207848e-01 -1.89902654e-01
 -2.27576584e-02 -1.86059191e-01  7.95153690e-02  7.37220009e-02
  3.46438996e-02 -1.02153763e-01  1.73980415e-01 -7.40745664e-02
  3.44737836e-01 -4.55999085e-02  3.57558145e-02  7.88792228e-02
 -7.80124107e-02  7.42522510e-02  3.20086422e-02  4.20468851e-02
  1.28794354e-01  1.80007811e-01  5.28209753e-02 -8.40993744e-02
  4.57512769e-03  1.21126871e-01 -1.80857241e-02  2.39637469e-02
 -4.89171720e-02  1.08912167e-01 -1.90656134e-01 -1.37881205e-01
  1.03117436e-01  1.47531585e-01 -8.15132141e-02  1.51779784e-01
  7.75580670e-02  1.30349893e-01  4.15574886e-02 -7.55015623e-03
 -6.52119046e-02 -1.36971586e-01 -3.24973297e-03  8.18854633e-02
 -3.56739088e-02  1.36804143e-01 -9.88244501e-02  2.27445592e-01
 -7.82912174e-02  1.78997646e-01  1.07571354e-01 -1.46861202e-01
  2.31116664e-01 -3.15125978e-02 -2.31104687e-02 -2.07969550e-02
 -1.83373212e-01  1.31546573e-02  2.48418135e-02 -2.34062098e-02
 -4.55193434e-02 -8.13070590e-02 -7.53583029e-02 -1.43766453e-01
  7.63690253e-02 -4.94519520e-02  1.71428017e-01  9.54462598e-02
  1.50375655e-02 -1.33700295e-02 -2.48659623e-02 -5.90232531e-03
 -5.81502388e-02 -1.41915365e-01 -7.23816757e-02  4.90017201e-03
  1.26562483e-01 -2.96991938e-02  1.14330158e-01 -1.01431492e-01
 -7.83354867e-03  3.57408954e-02 -3.21126353e-02  2.04642157e-02
  1.72353397e-02  5.90025378e-02  1.16751384e-02 -7.61531842e-03
  1.74865712e-02 -8.73285459e-02 -4.39969445e-02 -1.35756055e-01
  3.63854992e-02 -1.34408671e-01  1.79664841e-02 -2.06573060e-01
 -5.19164430e-02 -1.46221331e-01  2.84208811e-02  2.18152811e-02
 -2.24151639e-01 -1.00913962e-01 -1.59001584e-02 -3.13020048e-01
 -1.00440620e-03 -7.16632277e-02 -4.15224001e-02  3.22893784e-01
  2.02507264e-01  7.18580960e-02  1.11541728e-01 -3.94031047e-02
  2.31833958e-02 -1.55918012e-01  1.54485830e-02 -7.99860828e-02
 -1.59632412e-02  5.44120184e-02  7.74498998e-03 -1.58082842e-02
  3.50417419e-03 -1.93665084e-02  3.91534447e-02 -1.35525150e-01
 -4.78074120e-02 -2.44623614e-01  1.38931004e-01  7.43028762e-02
  9.99400786e-02  8.25631541e-02  3.40874898e-02 -3.67881701e-02
  2.65995245e-02 -5.02069543e-02 -1.60883720e-01  6.88023602e-02
 -5.01425614e-03 -3.90473252e-02 -1.87307089e-01  2.67715747e-02
  1.40456266e-02 -2.23321347e-02  1.17889475e-01 -1.42267588e-01
 -1.09197409e-01 -1.65337047e-01  1.72526648e-02  8.84450751e-02
 -9.13576440e-02 -3.36390103e-02 -9.15451875e-02  1.28509744e-01
  6.61503942e-02  1.02592775e-01 -4.11505084e-04 -7.97765713e-02
  1.42486403e-01 -9.50856904e-02  1.26222109e-02 -3.88024001e-02
 -6.51933265e-02  1.53747699e-01 -3.76069267e-02 -6.74725471e-02
  2.00652970e-02 -1.20678551e-01 -8.65365394e-02  1.01322885e-01
 -1.08638711e-01 -1.02114843e-01 -1.35359184e-01  7.78168480e-02
  9.37466625e-02 -2.34141238e-02  1.02493104e-01  1.02833461e-02
 -4.27743716e-02  2.02830424e-02 -9.77458920e-02  1.83828272e-02
  1.26187124e-01 -4.38658986e-02 -4.26510517e-02  1.01353403e-01
 -1.87421585e-02  1.15880683e-01 -7.08198404e-02  5.22436488e-02
 -5.41544301e-03 -6.28021871e-02  1.98839946e-01  2.53729399e-02
  5.53726530e-02 -4.46645924e-02  2.46522823e-01  1.57564356e-02
  6.79097532e-02  6.57419062e-02  5.82904597e-02 -4.77465603e-02
  1.44134180e-02 -1.10872212e-01 -5.78440925e-02 -1.14102603e-01
 -1.34365499e-03 -1.41510407e-01  6.10470854e-02  2.30214321e-02
  2.09507039e-01 -1.67790576e-01 -4.43556624e-02 -4.37941369e-03
  3.40206646e-02 -2.29759940e-02  1.87898552e-02  4.31387869e-02
  5.80137881e-03  3.94725975e-02  1.79936860e-01 -1.32567780e-01
  9.10034589e-02 -4.57684108e-02 -3.75493285e-03  3.66032335e-03
 -9.45935896e-02 -6.05999737e-02  1.94591847e-01  1.00838369e-02
 -2.11825565e-01 -1.22569583e-01  3.21332112e-02  1.01585411e-01
  8.08166636e-02 -1.29895748e-02 -1.06778660e-01  3.24955757e-02
  3.63024849e-02  8.70562367e-02  2.31173938e-01 -1.89177087e-02
  2.03383009e-01  5.89427391e-02  3.54412017e-02  1.41991377e-01
 -1.67017772e-01 -1.30993798e-02 -3.17957063e-01  7.95339553e-02
 -2.15265106e-01  3.11395804e-02  9.13679019e-02  7.68988645e-02
 -5.08032226e-02  1.43705837e-02 -9.00610453e-03  1.97535340e-03
 -1.03044371e-01  1.48827601e-01  3.33546442e-02 -2.30989044e-02
  3.69854516e-02 -2.52093776e-02  1.51007318e-01  4.45710462e-02
 -6.70761479e-03 -1.17458689e-01  1.42240214e-01  1.29310817e-01
  9.23684715e-02 -2.22318819e-02 -4.74389838e-02  4.00629523e-02
  8.71977780e-02  1.19341422e-02  1.53864004e-01 -2.91921279e-02
 -5.47895939e-02 -6.83208990e-02 -2.04771948e-01  1.33577119e-02
  3.80791930e-02  7.08171435e-02  2.09057720e-01  8.00925269e-02
  1.15602566e-01 -2.26832074e-01  6.56125867e-03  7.92794457e-02
  8.11236617e-02  1.88413262e-02  4.30418774e-02  1.12207942e-02
 -1.92784063e-02 -1.27741301e-01  2.63418474e-02  1.84438630e-02
 -6.90759861e-02 -1.88697264e-01  4.68950586e-02  6.96530229e-03
  1.57900420e-01 -1.41673603e-02  9.40038670e-02  5.21462897e-02
 -9.06991457e-02  1.23496642e-01  7.63058722e-03  2.61035024e-02
 -4.12250518e-02 -2.18010878e-02  4.53029925e-02  1.78907290e-01
  4.17957762e-03  1.13303559e-01  9.48167198e-02 -5.41965651e-02
 -9.06258100e-02  1.63057874e-01 -1.52942421e-02 -7.89138750e-02
 -1.47317449e-01 -2.22891852e-01 -8.59448599e-02 -8.52800502e-02
  1.30278312e-01 -1.28197930e-01 -1.80696847e-02 -4.17218886e-02
  1.02012397e-01  1.18854977e-02 -5.59705163e-03 -1.09930237e-02
 -7.27001173e-02 -2.95844534e-01 -9.21259048e-02 -5.49190579e-03
 -5.24541131e-02  7.50576429e-03 -1.55894691e-02 -7.56925520e-02
 -4.54486916e-02 -1.34283964e-01 -6.97068860e-03 -1.17003631e-01
 -1.34622305e-02 -3.20894999e-02  7.79371836e-02  1.03360763e-02
  6.91850295e-02 -4.05402387e-02 -2.63397078e-02 -1.69234411e-02
  3.32251222e-02  7.44775127e-02 -1.61591023e-01  1.65189633e-01
 -4.05477861e-02 -1.52951065e-01 -2.87853754e-02  1.07065289e-01
 -7.03857877e-03 -5.59982138e-02 -8.68139310e-02  7.47081071e-02
  1.65728238e-01 -8.23504456e-02 -1.91904073e-01 -4.72489542e-02
  7.97533639e-02 -1.28458895e-01  1.05146075e-02  7.21895249e-02
  2.99725470e-02 -8.52217290e-02 -9.84441117e-02  1.55142143e-01
  1.10660734e-01 -2.30461676e-01 -1.51778257e-01  1.17831081e-01
 -7.16564086e-02  5.96653840e-02 -3.97453218e-02  1.85947126e-01
 -2.39798424e-01 -2.08393192e-01 -8.85509255e-02 -1.02824471e-01
 -1.78506880e-01  2.38523003e-02  6.51715596e-03  5.56734838e-02
  1.13409703e-01  2.66276552e-02  9.27346798e-02 -3.04256599e-02
  1.37913080e-01 -2.43413550e-02  6.97328711e-02 -2.35206928e-01
  2.04331498e-01  4.99571081e-02  1.88060323e-02  1.31730670e-02
  9.18763095e-02 -9.81628352e-02 -4.36027384e-02 -5.26420790e-02
  1.30644509e-01 -4.17561040e-02 -1.18431283e-01  1.20345218e-01
 -4.53772469e-02 -1.66764255e-02  2.43008134e-01  8.68862644e-02
  1.29058670e-01 -1.54068186e-01  9.13248105e-02  1.20146176e-01
  1.57715222e-01  2.69159514e-02 -6.80041913e-02 -3.47730064e-03
 -1.12269438e-01 -1.42213224e-02  2.94017126e-01 -1.88524313e-01
  1.61639721e-01 -1.06943747e-01  3.63587191e-02  2.10522039e-03
 -7.20784078e-02  2.55283500e-03  6.74335138e-03 -6.60383864e-02
  4.57254720e-02  2.52117585e-01  4.60508540e-02  3.99622440e-02
  1.40579117e-01  2.44176829e-02  4.61274278e-02  1.60463216e-02
  2.32281703e-03  6.34609660e-02 -7.24222944e-02 -6.39261524e-02
 -1.04019210e-01 -1.87447057e-01  4.75955294e-02  1.83436278e-01
  1.51024490e-02 -5.72500785e-02 -9.17456156e-02  1.50670155e-01
  8.26407755e-03 -3.38848243e-02 -7.54259520e-02 -8.47915752e-02
 -4.46818445e-02 -6.59024434e-02 -9.72325955e-03 -4.78675555e-02
  4.79471368e-02  1.07387554e-01  5.29705178e-02 -2.68179795e-02
  2.73921882e-02  3.71374370e-02  1.60855737e-01 -4.52874484e-02
 -6.62907691e-03 -1.06246955e-01 -1.52973178e-01  1.53307445e-01
  2.71585944e-02 -1.80327714e-01 -6.68362915e-02  6.60634362e-02
  1.08422420e-01  1.00154909e-01  1.38169907e-01  8.42919100e-02
 -9.95148272e-03 -7.14557289e-02 -7.31916086e-03  1.23813440e-01
  2.68547412e-02 -1.98326012e-01  1.92936342e-02  1.35710487e-01
 -1.32837230e-01 -7.78364179e-02  5.53588526e-02  1.77707012e-01
  3.97224694e-02 -1.94491735e-02 -5.72027542e-02 -1.45433442e-02]"
4,4,4,4,dead,"[ 0.00439694 -0.04307428 -0.09889397 ... -0.15144237  0.11395031
 -0.08144613]","[ 4.39693878e-03 -4.30742755e-02 -9.88939725e-02 -8.66242985e-02
  1.30483303e-01  1.02713218e-01 -1.98317393e-01 -2.00036738e-01
  3.92573008e-02  1.04697023e-01  7.36717509e-02  8.23394570e-03
 -1.59933147e-01 -2.44950208e-01  7.83379102e-02 -8.82159678e-02
  2.63268315e-03  5.95725175e-02 -9.67474318e-02  1.63141120e-01
 -2.38467938e-03 -1.23653779e-01  1.56542616e-01  4.81172163e-03
 -2.26506734e-01 -2.10480932e-01 -6.05494981e-03 -7.20091163e-02
 -5.67257085e-02 -1.07440471e-01  1.69907235e-02  8.19707094e-02
 -4.23215833e-02  3.99380690e-02 -1.14504445e-01  8.38646034e-02
  6.31404135e-02 -1.58984907e-02 -8.82739837e-02 -1.77582600e-01
 -2.29072255e-02  1.89108125e-02  6.10736154e-02  1.36128725e-01
  6.03292090e-02  1.26756487e-01  1.23987979e-01 -4.41702481e-02
 -8.02258791e-02 -7.13783353e-02  4.94374201e-02 -8.55454674e-03
  1.74935556e-01 -3.94746433e-02 -5.52572590e-03 -2.07004056e-01
  4.07951234e-02 -3.04071640e-02 -1.06796953e-01 -4.67672259e-02
 -8.01585259e-02 -3.66695699e-02 -6.58790349e-02 -4.77987309e-02
 -3.31115667e-02  4.40042042e-03  1.04705037e-01  1.58660552e-01
 -2.13890163e-03  8.81821149e-02 -4.49831669e-02 -1.09979973e-02
 -4.34536832e-02 -3.00600388e-03  1.36663080e-01 -8.27411308e-02
 -6.88490646e-02  3.70956008e-02  1.89576242e-02  2.07910854e-01
 -1.73974338e-01  1.80878316e-02  3.27017435e-02  1.88850099e-01
  3.34743680e-02 -2.34679832e-03 -1.81732819e-01 -4.35434024e-02
  1.79316628e-01 -4.26062770e-01 -5.90909138e-02  1.83141049e-02
  1.87957660e-02  2.79909535e-02 -1.85488403e-02  1.00643507e-02
 -1.32421233e-01  9.82454559e-03  7.57186458e-02 -1.97942211e-02
  5.34445533e-02  8.03695143e-02 -1.14797991e-01  1.65224870e-01
  9.67132713e-02 -1.20802616e-01 -8.13297954e-02  1.08455478e-01
  3.06536172e-02  5.09446025e-02 -5.16101515e-02 -4.13834145e-03
  2.42608213e-02  7.30423825e-02  9.74672598e-02 -2.30258998e-02
  1.29251179e-02  2.75085019e-02 -1.30822705e-01 -1.30791095e-01
 -1.20450300e-01  8.21148043e-02  1.67727750e-01 -2.14949157e-02
  1.25542037e-01  4.22465007e-02  1.91618218e-01  1.17590032e-01
 -9.61008896e-02  7.82428327e-02  1.08948405e-01  5.47868688e-02
  1.58756080e-03  1.18571577e-01  4.58726834e-02 -1.97246710e-01
  7.65795060e-02 -8.66992651e-02  5.96834938e-02  3.00555112e-02
 -2.31544041e-01 -6.05139227e-02  6.45765776e-02 -1.54869894e-01
 -1.30062123e-01 -1.50294558e-01  8.45644588e-02 -6.33274020e-02
 -7.19080231e-02  5.21186918e-02  1.42638367e-01  1.24776544e-01
 -9.56658469e-02  3.45325042e-02  5.92624733e-02  7.34757252e-02
 -1.04947597e-02  9.04628460e-02  1.21496353e-02  4.77424688e-02
 -9.70139325e-02 -2.80621083e-03 -9.86243565e-02  1.51275590e-01
  2.77619122e-02 -2.13639600e-01 -3.07307916e-02  1.60479540e-01
 -6.19833290e-02  1.14011227e-01  1.44502713e-01 -1.06225391e-01
  1.35167827e-01 -4.62091990e-02 -9.89016279e-02  7.17626235e-03
 -4.77215630e-02 -1.33983381e-01 -2.26347171e-01 -3.32113679e-02
 -5.84068758e-02 -1.61221426e-01 -1.59580937e-01 -6.72207910e-02
 -4.54829188e-02 -1.35291129e-02  4.06476495e-02  3.93625543e-02
 -9.40207603e-02 -3.36421638e-03  6.75209218e-02  3.17217125e-02
  3.63962969e-02 -1.18842075e-01 -9.44938907e-02 -1.39369211e-01
 -2.72991668e-02  1.76931406e-01 -3.65667301e-03 -4.24847604e-02
  9.91301999e-02 -8.38974231e-02  7.43744912e-03 -8.11932555e-02
  1.08194974e-01  1.01000063e-01 -4.22075574e-03 -6.46495419e-02
  1.01162679e-01  1.47547322e-01  6.28380656e-02 -3.96453919e-02
  4.21394186e-02 -1.66200170e-01  1.00129767e-01  4.34673538e-02
  6.53270941e-02  1.63783729e-01  5.57532053e-02 -3.14899546e-02
 -1.10289577e-01 -3.94028522e-02  1.51631066e-02 -1.48577520e-01
 -3.80839607e-02  6.60424184e-02  8.68747338e-02 -1.34124740e-02
 -1.45478895e-01 -4.18096195e-03  2.40631417e-02  1.07301913e-01
  5.86230021e-02  9.56667989e-02  2.32347453e-01  7.49118575e-02
  1.61969357e-01 -1.03035535e-01 -1.03493560e-02  6.19501832e-03
  1.03467388e-01 -1.23569306e-01  5.58050536e-02 -8.97833341e-02
 -1.23014700e-01  4.41447090e-02  9.58520275e-02 -1.67001827e-01
 -1.32087170e-01  1.21825382e-01 -1.47307643e-01 -1.24367720e-01
 -3.94299234e-02  7.20978601e-02 -1.31267293e-01 -1.25329974e-01
  2.11984941e-01 -6.10353989e-02  4.92428706e-02 -7.28374564e-02
  1.24214285e-01 -5.10700429e-02  1.58932183e-02 -2.85667189e-02
 -2.71938150e-02 -1.39581629e-01  6.58948079e-02 -1.68007078e-02
 -3.34821901e-02 -6.56980484e-02  6.68998408e-02 -3.70735367e-02
  7.64538938e-02  1.38690665e-01  1.20294207e-01 -3.90179845e-03
 -2.86584611e-02  2.16874268e-01 -1.62568795e-01  1.80138423e-01
 -1.67735758e-01  7.33330874e-03 -1.32000561e-03  7.35668526e-02
 -6.77854693e-02  8.81321169e-02  8.39140749e-02 -5.78113312e-02
 -8.02751725e-02  3.49785327e-04  5.08885269e-02 -4.52778403e-02
  6.22129579e-02 -5.60155649e-02 -8.05818291e-02 -7.92699311e-03
  1.80838814e-02  1.77801140e-01 -1.02771533e-02  3.99469917e-02
 -2.17626876e-02 -1.97553631e-01  1.60213531e-02 -6.25629628e-02
 -3.48761596e-02 -1.15222037e-02 -1.97502024e-03 -2.64508834e-02
  9.89920264e-02  5.47525281e-02  1.12412440e-01  1.32094051e-01
 -3.22427943e-02 -3.22421363e-02  2.03618255e-02 -1.01024378e-01
  1.42348448e-01 -7.48066000e-02  1.11330480e-01  5.71254500e-02
  2.45303642e-02  1.18019557e-05  4.73958074e-03 -9.08826077e-02
  4.23287287e-02  3.43251328e-02 -7.42118974e-02  6.73104040e-02
 -1.73066395e-02 -1.92078829e-03 -3.10176078e-02 -1.39269668e-01
  8.67906209e-02 -2.36515445e-03  1.25723326e-01  1.36906219e-01
  1.89717203e-02 -4.54723897e-02 -4.80621235e-02 -2.26416138e-02
  2.90636633e-03 -5.15824148e-02  1.74062717e-02  1.51829107e-01
 -1.20473987e-01 -1.97512306e-01  1.98156790e-01  5.32008937e-02
  9.98123240e-03  2.74270173e-02 -9.20946498e-02 -2.60067248e-01
  1.67626002e-02 -2.53738190e-01 -1.48765315e-01  1.41582417e-01
 -5.68341820e-02  3.24725412e-02  1.19791866e-01  7.96969615e-02
 -1.38699858e-01 -8.86352602e-02 -3.62729254e-02 -1.91034149e-02
 -1.67311893e-01 -1.21465874e-01 -1.02826267e-03  2.70825423e-04
 -3.24061722e-02 -3.29109931e-02 -1.94021285e-01  3.00430573e-01
 -8.59228829e-02  5.20409134e-02  1.37839332e-01  1.57621332e-01
 -8.15712694e-02  8.31565683e-02 -1.80459286e-02 -3.24226237e-02
 -7.29538960e-02 -3.31861072e-02  4.67856060e-02 -3.97037007e-02
 -1.02888610e-01 -4.47239468e-02 -1.45582394e-01  2.52837873e-01
 -7.92323339e-02 -7.84797255e-02 -1.67056175e-02 -1.80446419e-01
  1.83292699e-01  1.81733217e-01 -5.61511527e-02  2.39815283e-01
 -3.28445196e-02  6.16166882e-02  2.19195316e-01 -7.28857776e-02
  7.46244145e-02 -9.48384301e-02  6.56657565e-02 -2.85239071e-02
 -2.02054142e-02  9.35245694e-02  1.84246780e-01 -9.42079744e-02
  1.12963496e-01  1.85190826e-01 -9.18712679e-03 -1.23535468e-01
 -1.21010786e-01  9.08633085e-02  5.52935029e-02  3.52305633e-02
 -1.39742039e-01  9.48329217e-02  1.46464301e-01  1.86484398e-01
 -5.31732926e-02 -6.02968770e-02 -5.75690348e-02  1.03655907e-01
  1.66462949e-02 -8.79019946e-02 -3.29607956e-02 -2.22345513e-01
  5.69100347e-02 -8.15306916e-03  1.09350759e-01 -8.85962454e-02
 -3.86353274e-02 -3.66308810e-02  1.02043415e-01  5.81080665e-02
  3.42905835e-02 -9.55065069e-02 -5.98260932e-02  1.50312130e-01
  5.56839135e-02 -6.17143724e-02 -6.83970166e-02 -3.42560149e-02
 -3.19885733e-02 -7.57588518e-02  1.51616322e-03  2.93059670e-02
  6.74494521e-02  6.52964212e-02 -1.94536450e-01 -2.13906001e-02
  3.70754514e-03 -2.29587194e-02 -9.46981339e-02  5.23294109e-02
 -1.36209859e-01 -7.20402053e-02  5.80712204e-02  1.08976605e-01
  1.76308666e-01 -2.54386703e-01 -1.71299177e-01  9.16941919e-02
 -9.88156498e-02 -1.08341708e-02 -3.00491864e-02 -7.50996760e-02
  2.21604625e-01 -1.33335912e-01 -5.03147379e-02 -5.58168942e-02
  4.01969595e-02  9.19882112e-03  4.27064848e-03 -3.27794177e-02
 -1.37622998e-01  1.58997968e-01 -1.45869883e-02 -1.09107442e-02
  5.01287965e-02  8.99930212e-02  4.77633737e-02  4.98016873e-02
 -8.80751121e-03  9.12070562e-02 -1.10124867e-01 -1.35718927e-01
 -6.42029019e-03 -4.01435516e-02 -1.03029645e-02 -5.19341938e-02
 -4.57047474e-02 -1.21185020e-02 -1.16709086e-01 -4.77042163e-02
  1.53012419e-01  1.00775715e-01  3.00314189e-02  1.27459933e-01
  9.32668056e-02  1.61805277e-01  3.93177676e-02 -3.21455650e-02
 -4.48990481e-02 -1.95573642e-02  2.72530319e-03  9.93627364e-02
  7.34016620e-03  1.24223574e-02 -6.20252969e-02 -1.02701597e-01
  4.28200725e-03  2.44793255e-01 -4.92897361e-02 -6.12061646e-02
  6.79603851e-03  1.18322904e-01 -4.10548321e-02 -2.30482397e-02
  8.01080061e-02  9.89598856e-02 -1.49147907e-01  1.75629964e-01
  3.93782710e-02  4.01790119e-02 -1.71277621e-01  6.81026062e-02
  3.47276961e-02 -9.32330482e-02 -2.03709660e-02  7.93034918e-02
 -1.24805871e-02 -1.56897864e-01  6.03230213e-02  7.67673461e-02
  3.60746306e-02 -9.62153234e-02 -5.52326406e-02  1.74061996e-01
 -5.98147377e-02 -4.81260572e-02  1.73131901e-02 -6.82070065e-02
 -1.07541156e-01  5.82142559e-04 -1.82554303e-01 -1.75814291e-01
 -4.65079396e-02  5.57363221e-02  5.16843384e-02 -9.23947796e-02
 -1.31099118e-01 -6.37886039e-03  9.11926317e-03  2.27776617e-02
 -2.59300116e-02  3.84548321e-02 -1.91482827e-03  1.76180034e-01
 -1.06911596e-02  1.76450635e-01 -1.35319261e-01  6.71396813e-02
 -9.35113229e-03 -9.18892860e-02 -6.73587647e-02 -6.92719418e-02
  1.41932441e-01 -6.50856250e-02  1.15171090e-02  1.61514527e-01
  1.01892072e-01 -5.40415952e-02  1.47230931e-02 -7.61585105e-02
  8.66303628e-02 -7.64985405e-02 -1.48296671e-01 -1.21365616e-01
 -7.06185494e-02 -2.26052734e-02 -2.09168570e-02 -7.55702238e-02
  6.33553592e-02  1.15485448e-01  2.35684140e-02 -3.63086364e-02
  5.45577621e-02 -5.97127168e-02  1.29518209e-01 -1.66514394e-01
  4.09104557e-02 -1.26262641e-02 -3.26467489e-02 -1.41618443e-01
  1.71276762e-01 -1.80042238e-01 -2.58686417e-03 -1.55355115e-01
 -1.29228608e-01  1.15390852e-01 -1.05057790e-01  7.60812038e-02
 -7.29763524e-02  7.71973010e-02  9.22985638e-02 -1.56240828e-02
 -7.87414792e-02  1.85074728e-01 -7.77836425e-02  9.59431761e-02
  2.62542949e-01 -1.90936735e-01  2.44212317e-02  1.17771036e-01
  1.14425739e-02 -2.40969985e-03  9.96449615e-02  5.00817656e-02
  1.02275759e-02  6.29657414e-02 -4.41047979e-02  3.15724593e-02
 -1.04694756e-01 -1.09225599e-01  9.87411961e-02 -1.99341684e-01
  9.16775266e-02 -1.17533805e-01  5.08327068e-02  1.30397189e-01
  1.89442053e-01  1.36678597e-03  1.07244560e-01  9.78466722e-02
 -3.00636979e-02  6.03636322e-02  2.02936023e-02  5.19399604e-02
 -1.96094135e-01 -1.62000475e-01 -9.73794889e-02 -2.90150127e-02
 -1.72098768e-01 -1.23241944e-01  9.96329979e-03  6.49841347e-02
 -8.60754422e-02 -8.57578183e-02 -1.89913536e-02 -1.38914026e-01
 -4.57147073e-02 -1.56099424e-01 -1.73030552e-01  1.46653800e-01
 -5.56380949e-02  7.37276974e-02 -6.21011748e-02 -1.04530046e-02
  5.55818349e-02  2.94140170e-02 -8.05790947e-02 -5.16995082e-02
 -2.40570090e-02 -9.13785281e-02  8.28637940e-02 -1.35995452e-01
  8.28695598e-02  7.44286392e-02  1.49924596e-02  8.39130359e-02
 -1.83432408e-02 -4.93541798e-02 -4.78510598e-03  9.03793323e-03
 -5.56209727e-02 -2.58240684e-02 -3.78006018e-02 -7.61248636e-03
 -1.41855797e-01  8.10250857e-02  1.15231899e-01 -7.80902946e-02
  1.53127279e-01 -5.47900200e-02  9.93760919e-03  7.02494217e-02
  1.42895524e-01  1.82316006e-02  2.74264725e-02  1.43200083e-01
  3.10492323e-02  2.17304038e-03  7.14972188e-02 -6.08837018e-03
 -1.61945627e-01  1.98025226e-01  8.19956359e-02  3.55581746e-02
 -4.13264980e-02 -5.00022170e-02  6.86285429e-02 -4.34588506e-02
  5.99916060e-02 -1.19111532e-01  3.05409222e-03 -1.33625362e-01
 -5.58037184e-02 -9.02969288e-03  5.76047905e-03 -6.15803123e-02
  6.17843530e-03 -3.96714211e-02  2.14224288e-01  1.44099572e-01
  3.49001779e-06 -9.23734735e-02 -3.03874327e-02  4.54804338e-02
 -3.78645811e-04 -1.66094337e-01 -2.81321548e-02  1.12424775e-01
  6.28344907e-02  1.06616231e-01 -5.70401643e-02 -1.49694824e-01
 -9.67557372e-02 -7.56641724e-02  6.46376913e-02 -1.25450535e-01
 -4.78129511e-03 -7.88479838e-02  1.00884732e-02 -6.10185537e-02
  7.02983220e-03 -5.66303585e-02  1.30187826e-01  1.17497699e-01
  4.22018320e-02 -1.13317729e-01 -9.64294121e-02  1.17898039e-01
 -8.60982370e-03  1.56778091e-01 -3.27457173e-02  1.90949560e-02
 -1.08111491e-01 -1.73058616e-01 -1.92113771e-02 -9.06094600e-03
 -5.66075575e-02  1.28613873e-01  3.58676923e-02 -1.58751647e-01
 -6.94961690e-02 -2.41014941e-02  3.50453376e-02  1.61361242e-03
  1.27134258e-02  1.76729580e-01  6.37339418e-02  3.55691404e-02
  1.68739190e-02  1.71105801e-02 -9.75825472e-02  1.01739812e-01
  8.52747060e-02  1.69173014e-02  1.90468741e-02 -4.95653667e-02
  6.54404240e-02  3.94625426e-02 -1.58805542e-01  1.82838117e-02
 -8.15983873e-02 -1.12133364e-01 -1.37830302e-01  1.11049771e-01
 -6.38489337e-03  8.68224779e-02  1.67651155e-02 -1.44897299e-02
 -1.16683398e-01 -4.83825788e-02  4.66042679e-02 -9.06302978e-03
 -6.18345956e-02  1.13461248e-01 -5.98646838e-02 -4.47073481e-02
 -1.01020946e-01 -5.28393879e-02  6.03510848e-02 -4.83663051e-03
  1.21066015e-01 -1.04896051e-01  1.37596190e-01  1.06257142e-01
  9.58447051e-02 -8.80110074e-02 -3.29079716e-02 -2.42354078e-03
 -2.31740197e-02 -6.35742086e-02 -1.22152858e-02  2.04306674e-02
 -1.60248402e-01 -1.31150681e-02  2.48716903e-01 -5.68829918e-02
  5.59576948e-02  1.70679212e-01  8.18222890e-03 -6.08139026e-02
 -3.18344118e-03 -6.21046862e-02  2.78586977e-02 -9.95942065e-02
  1.53349583e-01  2.36276570e-03  8.94130389e-02 -4.65218804e-02
  1.83202888e-03 -4.13643662e-02  1.45386410e-02 -1.43568000e-01
 -1.34342916e-01 -6.27640636e-02 -5.84285676e-02 -1.09844064e-01
 -7.14748632e-03  8.00192905e-03  3.41177093e-02 -7.66135049e-02
  5.83821025e-02 -6.70634828e-03  1.31242160e-01  5.76506320e-02
  1.20695473e-01  7.79308812e-02  8.47413203e-03  1.21188819e-01
 -4.55980697e-03 -6.14763666e-02  4.89887841e-02  3.31540981e-02
  1.34280597e-01 -1.29436883e-01 -1.58874046e-01 -1.25429389e-01
  9.83183916e-02 -2.53408800e-01 -1.98059570e-02  1.04688842e-01
 -3.52879390e-02 -7.27408440e-02  1.74240312e-02 -1.28228886e-01
  1.39086572e-02  8.27932729e-02  8.79815880e-02  1.46389133e-01
  1.24358770e-01 -5.75406090e-03  4.77382751e-02 -6.26305688e-02
 -7.57443561e-03  1.85319685e-01  2.82829492e-02 -1.39109456e-01
 -2.80178435e-04  4.38249691e-03 -1.71125996e-02  1.31858552e-01
  1.56870485e-01 -1.07105745e-01 -5.74925371e-02  1.00238721e-01
 -7.13339339e-02  2.43161314e-02 -1.55222570e-01 -1.35136626e-01
 -1.21778340e-01 -6.17305728e-02 -3.54724716e-02  1.31419462e-02
 -2.99624395e-01  1.65417195e-02 -1.17213689e-02  2.25245695e-01
  2.40489980e-01 -8.33845289e-02 -9.15143567e-03 -1.28397798e-01
  1.03159516e-01 -9.61421831e-02 -6.68690320e-02  9.62022878e-02
  1.61120810e-01  8.34596382e-02  1.35460256e-01  1.52090502e-01
  2.18487599e-01  1.81613133e-01 -5.65826276e-02  2.21181565e-02
 -5.54579931e-02  9.22711324e-02  1.38493981e-02 -1.02153796e-01
 -1.89194702e-01  8.80349458e-02 -1.74514218e-01  1.09745495e-01
 -9.31317748e-05  6.01894630e-02 -1.99472732e-01 -2.90623082e-02
 -1.55376446e-01 -2.63140633e-02  3.71328817e-02  2.38765409e-02
  1.06137982e-01  3.59927841e-04 -7.01542669e-02 -1.04400108e-01
 -1.81720437e-01  6.22420707e-02 -3.18722616e-02  1.49294916e-02
 -1.07624047e-02  1.03325053e-01  1.17834079e-01  1.30290578e-01
  7.83903614e-02 -3.39599885e-02  3.96874344e-02  9.27039826e-02
 -1.34106375e-01  2.80749704e-01 -1.82739633e-01 -2.04084542e-01
 -1.52024319e-01 -5.23636326e-02 -6.35239272e-02  1.02399356e-01
 -1.86149111e-01  6.84569154e-02 -1.18668870e-02 -1.10840667e-01
 -1.07744664e-01 -5.31635719e-02 -7.29786953e-02  1.75424305e-01
 -2.64525502e-02  2.70732713e-01 -4.10623707e-02 -5.40215675e-02
 -5.34119692e-03 -8.53974684e-02 -1.14891162e-01  1.00941699e-01
  1.07669114e-01  3.35505307e-02 -1.57130476e-01 -1.13448894e-01
 -1.91069355e-01  9.81571492e-02 -5.06520713e-02 -3.44642758e-03
 -1.52689347e-01  4.45970414e-02 -6.08192503e-02 -3.51416773e-03
  1.69588535e-02 -1.16595947e-03 -1.64620560e-02  1.48324420e-01
  3.87895453e-02  3.50324884e-02  1.14961937e-01  1.73991037e-01
  6.76697113e-02 -8.83684068e-02  1.06967265e-01 -4.61623004e-02
  3.87924880e-03  1.40889477e-01 -1.84571775e-02 -4.91385861e-02
 -3.46389288e-02  1.33904113e-02 -2.91949671e-03  9.93288101e-03
  2.68362151e-01 -2.81680369e-01 -6.51924861e-03  3.74958120e-02
 -1.27090284e-01  4.04053565e-02  2.87801595e-01  2.49441922e-02
 -1.94274561e-01 -2.53365490e-02  1.56997162e-01 -6.80431683e-02
  1.65746056e-01 -8.42093443e-02  8.79820193e-02  1.03486791e-01
 -3.43083527e-02  7.69263535e-02  1.18830805e-01  8.94107422e-02
  5.19475299e-02  4.68979834e-02 -3.13926623e-02 -2.74462280e-02
  1.75309472e-01 -1.51442374e-01  1.13950310e-01 -8.14461276e-02]"
5,5,5,5,love,"[ 0.05774305  0.09154253 -0.10310178 ... -0.01769397  0.21234424
 -0.09761561]","[ 5.77430519e-02  9.15425313e-02 -1.03101780e-01 -7.92783459e-02
  2.45244313e-02 -1.80363485e-01 -3.95244246e-02  1.14498125e-02
 -1.63050273e-02  5.15122948e-02  2.00205836e-02  1.04223653e-01
 -3.18954295e-02  1.03435894e-01 -5.92504022e-03 -9.94858820e-02
  1.53317610e-01 -3.83080538e-02  7.26939986e-02  3.78971214e-02
  6.70242523e-02 -7.44313869e-02 -5.78646617e-02 -1.80056180e-02
 -1.55864289e-01 -6.57307039e-03 -3.95500552e-02 -5.74175027e-04
  9.70207360e-02  9.40929719e-02  6.76182198e-02  1.21804780e-01
  2.65818302e-02  1.60210401e-01  9.88095384e-02  1.83558903e-01
 -1.50010683e-01 -8.56436750e-02  1.84467470e-02 -2.56976259e-02
 -4.62681576e-02 -2.41309690e-01  1.35581776e-02  1.06964392e-01
  3.70068038e-03  4.25360392e-03 -8.59381697e-02 -6.49001880e-02
 -4.71494498e-04  6.78323405e-02 -6.79267844e-02  1.07405140e-01
  9.18064466e-02 -1.03867911e-01  1.15360736e-01 -8.33077333e-02
 -1.20765719e-01 -8.37029706e-02 -1.11673905e-01 -1.95006755e-01
 -8.87952435e-02 -2.09621876e-01  1.20073742e-01 -6.53062444e-02
  1.97772270e-02 -3.63590851e-02 -2.49050388e-02  1.94709463e-01
 -1.62968405e-01 -1.78325675e-01  1.56074754e-01 -4.13747348e-02
 -1.06556586e-01 -9.64014315e-03  7.14061057e-02  9.92221312e-02
  9.18414788e-02  5.41418607e-03 -6.71273754e-02 -1.47926508e-01
 -1.36147850e-01  7.41717860e-03 -1.07599786e-01 -5.41116118e-02
 -1.43859867e-04 -6.61547573e-02 -6.71794120e-02  7.17735064e-03
  4.71962815e-02 -2.50072848e-02  5.58877996e-02 -1.89341834e-01
 -3.63699753e-02  2.78128791e-02  1.46473367e-01  1.37193856e-02
 -3.09880864e-02  1.15898625e-01 -4.54625314e-02  2.43383210e-03
  9.38374816e-02  1.41075732e-01 -3.42127321e-02  3.46136004e-02
  1.18388637e-01 -1.22065835e-01 -1.13508406e-01  7.90901964e-02
 -7.91026722e-03 -1.57944475e-01 -2.63408192e-02 -2.41460893e-01
 -2.68779649e-02 -6.15059119e-02  6.13512595e-02  7.00834147e-02
  1.07428314e-01 -4.17735412e-02  8.11060684e-03 -5.39112390e-02
  9.99611329e-02 -5.68874150e-02  1.46393393e-01  9.78961373e-02
 -1.17133906e-01 -4.09086706e-02  2.01343330e-01 -3.99972700e-02
  1.63076087e-01  3.38654009e-02 -2.57535128e-02 -2.57279214e-02
  8.41217118e-02  7.20995587e-02 -6.52955908e-02  6.14980806e-02
 -1.04611853e-01 -1.27076744e-01  8.21549333e-02 -1.03641152e-01
  3.95481346e-02  7.65282477e-02  4.70130896e-02 -6.78571137e-02
 -5.37289824e-02 -2.85169784e-02  3.99169271e-02  7.21103175e-02
  2.80185648e-01 -6.54594237e-02  5.23170246e-02 -2.70953690e-02
  4.08606705e-02 -1.16162108e-01 -1.98475815e-01 -4.60950765e-02
  6.00280349e-02  1.45648635e-02 -2.59857374e-02 -1.19359875e-02
  1.98697796e-02 -5.04665685e-02 -5.24022383e-02 -8.23694139e-02
 -2.50377310e-02  3.60709803e-02 -4.95907489e-02  1.37089502e-01
  1.01984714e-01 -9.17340762e-02  1.07832255e-01  3.26673163e-03
  1.60287638e-02 -1.17727878e-01 -3.34155174e-02 -7.50452292e-02
  1.03007660e-01  1.27645162e-02 -2.76143355e-02  1.22181215e-01
 -7.90723555e-05  3.13077224e-03 -1.41822374e-01 -1.66859494e-01
  2.59666108e-02  2.18759381e-02 -2.96622350e-02  9.28735011e-02
  1.05490223e-01 -7.06896275e-02  9.61861918e-02 -1.33707139e-01
 -6.80613420e-02 -5.90049932e-02  1.00115526e-01  1.69311546e-01
 -5.83885723e-02 -1.09126333e-01 -8.18016247e-02 -1.19865317e-01
 -3.79201780e-02  3.32599172e-04 -2.18337791e-02 -6.82713986e-02
 -3.70822726e-02 -2.39088598e-02  7.36344871e-02  7.48393399e-03
 -1.70606169e-01 -5.92369624e-02  2.57075765e-02  2.17230240e-02
 -8.41315544e-02 -3.30412930e-01  2.56642673e-01 -1.08775141e-01
 -4.44074982e-03  1.09236942e-02  5.38152151e-02 -5.37339561e-02
  5.43442259e-02 -8.52166537e-02 -2.76588489e-02  2.18719016e-01
 -6.00775883e-02 -1.42239713e-01 -1.20027262e-01  2.16024476e-01
  2.52941780e-02 -1.56878321e-01 -8.54282193e-02 -1.84493407e-01
 -1.08200926e-01 -6.16124572e-02  4.66006314e-02 -1.11954360e-01
 -4.19149924e-02 -6.11025970e-02 -1.37949296e-01  5.54146329e-02
  1.22180387e-01 -5.48088147e-02 -1.31511162e-01 -3.50119492e-02
  4.50379327e-04 -1.24429951e-01 -7.88885304e-02 -1.50194614e-01
  8.85989055e-02  2.87712567e-02  7.59648303e-02  1.08176431e-02
  5.00976592e-02 -8.20695015e-02 -8.69470753e-02 -2.20503177e-02
 -9.43494538e-02  3.76211514e-02 -1.48188041e-02 -1.51164206e-01
 -1.00638140e-01  1.74441443e-01 -3.61121153e-02  6.17388410e-02
 -1.48157916e-01 -3.65316126e-02 -1.79824340e-02  9.83899980e-02
 -1.30222187e-01  1.44663272e-02 -1.28037682e-01 -2.70607873e-02
  1.27457862e-02 -8.77633116e-03  4.25105545e-02 -1.47458967e-02
  1.92160790e-01  4.97455326e-02 -2.15628424e-02 -6.56388508e-02
 -4.08582189e-02 -8.64499364e-02 -6.75995117e-02  6.07001726e-02
 -7.27931548e-02  7.05954253e-02  1.21252046e-02 -3.95324054e-02
 -1.98628808e-01 -7.30168628e-02  8.67731980e-02 -1.00088173e-01
  1.03849800e-02 -2.90070155e-02 -4.56464264e-02 -1.20694871e-02
  8.35215759e-03  1.72652326e-01 -1.12716402e-01 -1.10854788e-01
 -3.18828469e-02 -4.82252897e-03 -7.77166301e-02 -4.04739998e-02
  2.96510218e-02 -1.12855635e-01 -1.03673296e-01  9.45421683e-02
 -5.97909636e-02  9.50683835e-03  1.27507309e-01 -2.60334872e-02
 -2.75103850e-02  2.36222490e-02 -1.77946319e-02  3.67109289e-02
 -1.71839046e-02 -1.50396414e-02  9.05370885e-02  1.32058199e-01
 -1.78785488e-02 -1.45736861e-01 -3.12806736e-02  1.42111725e-01
  3.39274652e-03 -7.00770014e-02 -1.40557271e-01  1.03332078e-01
  8.37474724e-02 -1.87740576e-01 -7.89910962e-02 -7.78727488e-02
  9.57524949e-02 -8.55629196e-03 -1.20814045e-02  1.05260292e-01
  1.20857288e-01 -3.11508419e-03 -2.37408180e-02  6.87108984e-02
  4.20991935e-02  3.11704683e-03  5.77873579e-02 -2.94992871e-02
  1.91185155e-02 -1.57157236e-02 -1.19781717e-01  3.05038415e-01
 -1.87377809e-02 -9.35235532e-02 -4.14427050e-02  1.45142981e-01
 -7.62751210e-02 -1.82125441e-02 -3.85424998e-02  9.46955675e-02
  3.10478829e-02  3.95295444e-03  8.12101811e-02 -2.84525615e-02
 -1.98970063e-02  1.13134449e-01  8.26848292e-02 -6.93948440e-02
 -2.05356508e-01  4.67870675e-02 -1.25568319e-01  8.59444974e-02
 -9.09659285e-02  2.55714840e-02 -8.38960337e-02  1.32820185e-01
 -2.11758222e-01 -1.68161176e-01  1.64707830e-02  6.00288750e-02
  3.75731748e-02 -1.33538604e-01  3.55131250e-03 -1.01463266e-01
  1.22964729e-01 -1.76368238e-01  2.21213734e-01 -2.44361736e-01
  4.71991723e-02 -7.34239834e-02  1.26824025e-02 -1.32081535e-01
  1.49354917e-02  1.08760366e-01 -1.47848038e-01  1.02581889e-01
 -5.88251912e-03  4.93484025e-02 -1.58145836e-01  1.60784418e-01
 -1.61399737e-01  1.18797212e-01 -1.41372237e-02 -2.42753831e-01
 -6.02007421e-02 -3.41868314e-03  9.11935166e-02 -4.63806103e-02
 -2.96565472e-02 -2.02007193e-02 -7.84368007e-02 -9.08037323e-02
  1.95648029e-01  1.45470001e-03  1.78237940e-01 -1.42558138e-01
  1.47065228e-02 -8.44120104e-02  1.39883583e-01  1.23900897e-01
 -5.69966433e-03  1.46525256e-01  8.24133270e-02 -1.89150154e-02
 -5.57855809e-02  2.74498852e-01 -9.22520762e-02  6.47785633e-02
 -5.07259289e-02  1.27519933e-02 -1.03570532e-02 -7.16893893e-02
 -9.03463947e-02  4.95125301e-02 -1.24918472e-01 -6.77932214e-02
  1.71155847e-01 -2.19561003e-02 -7.55202766e-02  1.23992807e-01
  5.20399100e-02  1.56541765e-02 -7.50673479e-02 -8.88879693e-02
 -2.51807718e-01 -2.49216884e-01 -1.07420837e-01  3.09663557e-02
  8.88095760e-03 -2.38247756e-01  8.31937524e-02 -6.29385044e-02
 -1.62507322e-01 -4.84834577e-02  2.11989956e-01  4.42183837e-02
  5.33218272e-02  9.69668164e-02  2.37384713e-02  1.32095295e-01
 -1.34706218e-01  5.04748872e-02  1.17164168e-01  8.53876236e-02
 -1.69328876e-01  9.78998402e-03  3.86858246e-02  1.23729911e-01
  5.52124528e-02 -1.20810768e-01  5.35742961e-02  4.88150640e-02
  3.64756620e-02  1.79637718e-02 -5.46545277e-03 -8.52244400e-02
  6.92008525e-03  1.99851791e-01 -1.30785100e-01 -1.47329712e-01
 -1.48629072e-01  8.68747965e-02  1.72402012e-02  1.01081639e-01
  2.01880072e-01  4.52735928e-02 -2.17685296e-02  4.09892904e-02
  2.32346399e-02 -9.42709270e-02 -1.23876849e-01  1.36774127e-01
 -5.50542651e-02  2.72439909e-02 -4.35712140e-02 -7.22285310e-02
 -1.88631705e-02 -3.34046912e-02 -5.52114635e-02  1.51422687e-01
 -2.33466579e-02 -7.67664920e-02 -1.88671040e-03 -2.29724344e-02
 -2.07626232e-01  9.52984616e-02  5.32940362e-02 -3.22817761e-02
  5.73201748e-02  8.63396548e-02 -6.13488085e-02  3.43873999e-02
  7.97698316e-02  1.22928587e-02 -2.69310908e-01 -2.02263402e-01
 -2.22065793e-01 -8.28403490e-02 -7.60954056e-02 -1.16346500e-02
  2.71716585e-02 -7.80767555e-02  1.05976467e-01  1.01133794e-01
 -8.73986683e-02 -6.76803008e-02 -2.75451669e-02  4.07774383e-02
  4.63270280e-02  2.63957191e-01  3.09270680e-04 -8.31683683e-02
  4.12731871e-02  1.07878568e-03  5.49323351e-02  1.37864030e-02
  8.07501330e-02  1.00333217e-01 -1.77112358e-01  1.34938208e-01
  8.63632030e-02 -3.17126791e-02  1.19627408e-01  5.92546132e-02
  7.88893931e-02 -2.98900712e-02  2.88440409e-02  5.37643148e-02
 -7.98574087e-02  3.50371673e-02 -6.77328342e-02 -7.81879709e-02
 -1.25147320e-01 -1.38814229e-02  4.55342191e-02  4.77347001e-02
 -1.43161824e-01  1.50600001e-01 -9.71899798e-04  4.34040711e-02
 -1.37461497e-01 -1.34191770e-01  6.67853411e-02  7.06078015e-04
 -2.21595867e-01 -1.38233988e-01  1.85642627e-01  6.67946473e-02
 -2.28886485e-02  1.65703890e-01  1.20986340e-01  2.94306877e-02
  6.90119472e-02  1.02235624e-01 -1.01696385e-01 -7.64060090e-02
 -3.49143443e-02 -2.20535595e-02 -7.87655164e-03 -8.11063307e-02
  7.25035301e-02  4.31450772e-02 -1.20005821e-01  1.55440825e-01
  1.26785880e-01  3.95025764e-02 -1.37291028e-01  7.96704014e-02
  7.91714578e-02  4.01137763e-02 -1.00116408e-01 -4.15254144e-02
 -2.04812201e-01  7.83721230e-03 -5.42003870e-02 -3.31833249e-02
  1.52962218e-01 -1.64365675e-01  2.32787688e-01 -9.22010824e-02
 -1.05498007e-01  5.95997645e-02  1.21225012e-01  6.44004907e-02
 -1.78426661e-03  8.12441213e-02 -1.05140787e-01  8.37921068e-02
 -1.71314348e-02 -5.92383535e-03 -4.78231032e-02 -8.09909255e-02
 -1.02217519e-02 -9.63376078e-02  1.37276432e-01 -8.45656235e-02
  2.66759446e-02 -7.13421643e-02 -3.25091735e-02  4.89838337e-02
  1.00196847e-01  9.72997549e-02  1.77218172e-01 -1.40697584e-01
  8.78837079e-02 -2.02050862e-02  2.83754009e-02  3.31537913e-03
 -4.67183923e-02 -1.37593568e-01 -2.84642069e-02 -1.64017539e-02
  1.41448260e-01  1.24942357e-02  8.22001237e-03  6.33306462e-02
 -4.16895091e-02  4.97392888e-02  2.47096670e-01 -1.43604573e-01
  8.25739737e-03 -7.56678387e-02 -1.40576458e-01 -1.92061788e-01
 -6.27537270e-02 -2.83460797e-02 -1.03549069e-01 -6.95718782e-02
 -9.21282669e-02 -6.36414518e-02 -6.27260692e-02 -4.97608652e-02
  8.20293031e-02  2.25365018e-02 -1.50823811e-01  9.46742643e-02
  1.85007135e-01  2.84901119e-02 -7.10169275e-02  1.33921084e-01
  9.85004865e-02 -4.82945958e-02  3.59916195e-03  1.69984731e-01
  1.12617475e-01 -1.60877279e-01  4.28652141e-02  1.53357476e-02
 -2.96208340e-02 -1.89485682e-02 -1.88607461e-01  5.62599394e-03
  5.17026049e-02  1.58715319e-01  5.23155155e-02  2.47432168e-02
 -2.46535597e-02 -1.66244400e-02 -4.43749842e-02 -5.05492895e-02
 -1.96763914e-02 -6.51991740e-02  1.29839955e-01 -4.22263912e-02
 -1.57888328e-01 -1.99727892e-02  1.44425229e-02 -1.76486430e-02
  1.48895106e-01  4.64781705e-02 -7.15393404e-02  6.48202141e-02
 -1.04386327e-01  1.32249672e-01 -9.68735838e-02 -4.92366121e-02
 -7.06216522e-02  1.63162873e-01 -1.60847503e-02 -1.21668727e-01
 -4.98826223e-02 -5.01368118e-02 -2.73148299e-02 -1.43222674e-01
  1.15763673e-02 -1.47862890e-01  1.54986257e-01  4.86216510e-02
 -9.70933041e-02  3.36512709e-02  2.90726920e-02 -7.10189163e-02
  6.40150199e-02  6.07719271e-03  5.31833490e-02 -7.80730051e-02
 -9.89461593e-02 -1.01088631e-02 -1.28882852e-02 -4.15814429e-02
  2.18888171e-01 -2.12975206e-02 -1.08803378e-01  1.36901025e-01
  4.21212483e-03  3.57709350e-03  1.61874297e-01 -1.30521196e-01
  7.17320195e-02 -4.03799441e-02  1.20298156e-01 -3.22154700e-04
  3.06371371e-02  9.73592010e-02 -6.22090729e-02 -2.60194416e-02
  6.61797689e-02  1.23711478e-01 -2.29926961e-02 -4.24664277e-02
 -5.22247388e-02 -2.19356243e-02 -1.05404724e-01 -1.98674149e-01
  6.78197825e-02 -1.36310191e-01 -1.30436789e-01 -4.95231381e-02
  1.63994747e-01 -7.60422584e-02  1.41068932e-01  1.25958123e-01
  4.70495520e-02  1.28741962e-01 -6.95451319e-02  1.39716460e-01
 -4.76507108e-02  2.54690192e-01  2.09834025e-01  2.21121177e-01
  1.25603767e-01 -5.99452087e-02  1.13207105e-01 -7.98635966e-02
  1.57290176e-01  1.17763555e-01 -1.31133371e-01  1.33076717e-01
  1.79853257e-02 -1.39761504e-01 -4.47043109e-02  1.28794898e-01
  3.87153343e-02 -1.49696325e-01 -8.07236972e-03  1.39547228e-01
 -1.91456921e-02  6.67213564e-02  8.88454496e-02  1.63654230e-02
 -4.68674187e-02 -1.12899290e-01 -9.68749504e-02  8.99878629e-02
  4.14837102e-02  8.22372715e-02 -7.13456785e-02 -6.42061091e-02
 -1.26435149e-02  7.14657561e-02 -1.74380552e-01  5.33915006e-02
  5.22374299e-02  5.77341055e-02  6.33222443e-02 -3.85203327e-02
 -1.06866588e-01  9.67087532e-02 -2.98795685e-02  8.59097241e-02
  7.38269229e-02 -8.18675603e-03  1.57560560e-02  8.60956720e-02
  1.35032451e-01 -2.24948916e-02 -1.19991029e-01  6.01709149e-02
  4.29051350e-02 -4.93230890e-02  4.57209805e-02 -1.96214666e-01
  7.67673315e-02  4.70773133e-02 -1.61403480e-01  3.10426221e-02
 -1.32244815e-01 -4.06110096e-02 -7.78438524e-02 -1.20491065e-01
 -1.19794208e-01 -2.45105095e-02 -4.60654520e-02 -6.67713418e-02
 -7.83760714e-02 -9.12372037e-02  2.52718860e-02 -1.33739602e-02
  3.93107549e-02 -7.69217538e-02 -4.32067767e-02 -1.32672160e-01
  1.00860699e-01 -1.44469276e-01  8.23965042e-02 -4.97039368e-02
  1.67746105e-03  8.98658428e-02  9.53005427e-02 -3.30171654e-02
  1.22781576e-01 -7.49265071e-02  2.30609671e-01 -3.85850335e-02
  9.50371403e-02  1.02580715e-01  2.76517463e-02 -1.48555406e-01
  9.63778237e-02  6.11560155e-02 -2.68786768e-01 -1.05674842e-01
  7.99425852e-02 -5.24454154e-02  3.50380707e-02  2.87041272e-02
 -3.12832375e-03 -2.49606024e-01 -5.51498588e-02  5.23179227e-02
  9.53170940e-03  2.03420718e-02 -5.64338870e-03  1.53787709e-03
 -1.58283334e-02  2.09187658e-02 -1.56034626e-02  2.84938219e-01
 -8.30258787e-02 -3.83876111e-02 -1.57197904e-02  1.27469526e-01
  1.04612328e-01 -1.23934560e-01  6.20068974e-02 -2.11879367e-02
 -3.21872855e-02 -9.39253515e-02  6.13138957e-02  1.04556706e-01
 -6.34318488e-02 -3.74601652e-03 -1.39453143e-01  6.03196829e-02
  1.71206928e-02 -7.76167812e-02  5.26111257e-02 -7.09789927e-02
  9.88153595e-02  8.42352990e-02 -1.91923757e-02 -2.51895833e-01
  5.38224213e-02  1.40780107e-02 -7.91737125e-03 -1.60396115e-01
 -1.89784214e-02 -3.18943302e-02  8.37025808e-02  5.69012157e-02
 -5.24084065e-02 -3.64584489e-02 -7.68751599e-02  6.07082311e-02
 -9.64609208e-02  2.64985801e-02 -2.75345047e-03  1.61786266e-01
  2.12093214e-01 -1.28567063e-01  1.46323400e-01  6.87367423e-02
  9.44755866e-02  7.83887760e-02 -1.55016218e-01 -1.25937846e-01
 -9.93660576e-02  8.57856292e-02  1.28415282e-01 -7.54559215e-02
  1.38494471e-02 -6.59155399e-02 -1.00543672e-01 -3.98395641e-02
 -1.81592969e-01  9.51013797e-02  7.62476581e-02  5.14287407e-02
  1.56956918e-02 -9.79265257e-02  1.67027484e-01  1.55313075e-01
 -7.06005749e-02  1.82738548e-02  1.00673934e-01  2.74082090e-03
 -4.89265359e-02  1.64837498e-03 -1.57553015e-02  4.98651000e-02
  6.72352459e-02 -5.34782638e-02  6.43627177e-02  2.65204582e-02
 -7.62777835e-02  7.06065030e-02  3.74210038e-02  7.38407586e-02
 -1.67314385e-02 -4.31344792e-02  1.52370992e-01 -7.90268405e-02
  6.87756512e-02 -8.43144681e-03  1.66949692e-01 -3.25330883e-02
  4.03797160e-02  1.52041463e-01 -5.99361908e-02  1.40781945e-01
  6.04171671e-02  1.29381687e-02  8.59101044e-02  3.13851421e-04
 -9.64496398e-02 -2.16977687e-02 -1.43639651e-03  8.79299637e-02
  1.05836820e-01  1.15697834e-01  2.48231972e-01  8.20896124e-02
  7.20063885e-02  2.41704236e-02 -7.46354902e-02  1.44667152e-01
  1.27820838e-01  5.45707988e-02  3.68817912e-02 -2.94355719e-01
  2.52927673e-02 -2.29700857e-03 -1.81725564e-01  1.23950085e-02
  3.31903463e-02 -5.52359676e-02 -1.10796851e-01 -1.72048072e-01
  2.75044251e-02  4.79586163e-02 -3.80086356e-03  1.28483127e-01
  3.49812379e-02  1.67702006e-01 -1.49928323e-01  1.08612814e-01
